<?xml version="1.0"?>
<opencv_storage>
<opencv_ml_svm>
  <format>3</format>
  <svmType>C_SVC</svmType>
  <kernel>
    <type>LINEAR</type></kernel>
  <C>1.</C>
  <term_criteria><iterations>100</iterations></term_criteria>
  <var_count>4356</var_count>
  <class_count>2</class_count>
  <class_labels type_id="opencv-matrix">
    <rows>2</rows>
    <cols>1</cols>
    <dt>i</dt>
    <data>
      0 1</data></class_labels>
  <sv_total>1</sv_total>
  <support_vectors>
    <_>
      6.06922060e-03 8.98268260e-03 -1.60437319e-02 2.26837769e-03
      7.67002674e-03 9.67220496e-03 7.22367736e-03 -8.43980070e-03
      -4.31651296e-03 -3.44847009e-04 -1.01041161e-02 -2.43173391e-02
      3.50145483e-03 2.80098207e-02 3.87768936e-03 6.59345416e-03
      -2.16694875e-03 -1.34341288e-02 -4.24782094e-03 4.30112705e-03
      -1.23788696e-02 2.09898949e-02 8.16735253e-03 -8.30296054e-03
      1.74953751e-02 9.26178508e-03 -1.71775334e-02 -1.54225305e-02
      -2.92531606e-02 -5.84232667e-03 2.56346129e-02 5.36812656e-03
      -3.69486138e-02 -1.37915788e-02 -3.62200453e-03 -2.33074534e-03
      -1.32269394e-02 -1.09981634e-02 -2.17188876e-02 -2.10448131e-02
      3.21556963e-02 9.77897272e-03 3.12048313e-03 1.45766996e-02
      -8.02866742e-03 -2.78452132e-02 1.13905231e-02 9.63695161e-03
      -2.25849152e-02 1.50286565e-02 3.07684857e-03 3.88480886e-03
      4.32394771e-03 5.60637284e-03 -8.74092523e-03 -1.43695837e-02
      -1.32973827e-02 -6.24029106e-03 1.41672185e-02 -1.30542442e-02
      -2.50934940e-02 1.08276019e-02 -3.51667375e-04 -1.96477324e-02
      -4.34754277e-03 4.36206069e-03 -9.31404997e-03 1.86441727e-02
      -5.12145425e-06 -2.30804961e-02 1.25388801e-02 9.25490074e-03
      -3.04794256e-02 2.97352835e-03 2.75629660e-04 -1.06876353e-02
      1.39724230e-02 -1.32084973e-02 -2.32740380e-02 1.74749549e-03
      3.18099260e-02 -2.69765442e-04 -1.71056110e-02 -2.02858523e-02
      -2.93935603e-03 1.43341161e-02 -5.68295410e-03 8.72637890e-03
      6.35572709e-03 8.72637890e-03 -1.60881002e-02 -8.06609076e-03
      -1.03925066e-02 -1.51462406e-02 4.14564693e-03 -1.28494343e-02
      -1.48406150e-02 -1.83588301e-03 2.48087961e-02 8.72637890e-03
      -1.11392001e-02 -2.11570580e-02 -7.64423795e-03 -2.60144612e-03
      -1.02558760e-02 -1.13661792e-02 -3.72461556e-03 8.72637890e-03
      -1.10348333e-02 9.08568129e-03 3.91988456e-03 -6.60602003e-03
      -9.06452816e-03 -2.70060147e-03 -5.86985261e-04 -5.86985261e-04
      1.83492415e-02 -1.67545360e-02 1.86148658e-02 2.12531704e-02
      -1.49642397e-02 -8.46024416e-03 5.20063192e-03 -5.86985261e-04
      -5.86985261e-04 9.19625163e-03 4.94465174e-04 -1.10002223e-03
      -5.37503324e-03 -4.43207519e-03 5.41557849e-04 -2.86599481e-03
      -3.44978948e-03 -7.84760155e-03 2.12506913e-02 -5.86985261e-04
      -1.74782355e-03 -3.00558424e-03 -3.96057684e-03 6.39286824e-03
      4.00880119e-03 -9.02858470e-03 -2.06299294e-02 -5.86985261e-04
      -3.68148857e-03 -8.21796339e-03 5.53470396e-04 -5.32006146e-03
      -9.25899833e-04 3.03840102e-03 -1.71991345e-03 -1.73737127e-02
      1.78953223e-02 1.79194082e-02 -2.81911381e-02 -9.75084305e-03
      -2.61134421e-03 -1.68261328e-03 -1.03326107e-03 -8.05702526e-03
      -1.10871978e-02 2.02401727e-02 -1.74588000e-03 -6.16667839e-03
      -4.55188984e-03 -1.59012352e-03 2.01137620e-03 5.56607032e-04
      -8.62447079e-03 -1.98859144e-02 -1.74588000e-03 -1.74588000e-03
      1.07140688e-03 -7.82512687e-03 -2.27146223e-03 7.89814920e-04
      -1.71256636e-03 -5.28044067e-03 -1.20361065e-02 -1.74588000e-03
      1.70259345e-02 -8.90495069e-03 -7.87527300e-03 -5.74726262e-04
      -1.50503265e-03 -5.34166873e-04 -5.38856909e-03 -9.74868704e-03
      1.45581737e-03 4.34610341e-03 1.47809414e-02 -1.65904164e-02
      -2.37339293e-03 -1.25769363e-03 -6.61295257e-04 -4.94528143e-03
      -7.33761117e-03 -1.45108420e-02 -3.58212204e-03 8.67533777e-03
      -6.90704025e-03 -2.20657187e-03 -7.52228138e-04 8.17404536e-04
      -1.35074044e-03 -1.48971507e-03 -3.58212204e-03 -3.58212204e-03
      1.23769632e-02 -1.03623057e-02 -2.09476589e-03 -1.29722373e-03
      2.02982780e-03 -4.94366698e-03 -5.92884282e-03 -3.58212204e-03
      6.92023244e-03 2.52448698e-03 -1.40157044e-02 -3.50200688e-03
      9.14621283e-04 -2.00011325e-03 -1.46825449e-03 2.41671689e-03
      -2.68565840e-03 1.59347262e-02 -4.06699255e-03 -1.28853442e-02
      -1.38923235e-03 1.87997997e-03 -2.11572717e-03 -2.77281448e-04
      -5.01448754e-04 -2.02701637e-03 1.57125434e-03 2.51079840e-03
      -8.56497604e-03 -2.01975065e-03 1.64382815e-04 -5.87833347e-04
      -3.95140983e-03 1.30665384e-03 1.57125434e-03 1.57125434e-03
      -2.40743626e-02 -6.86375005e-03 -5.35728061e-04 1.58153777e-03
      -1.43219391e-03 -6.77259173e-04 2.06217496e-03 1.57125434e-03
      4.30470193e-03 -8.68240488e-04 -2.97381915e-03 2.96764611e-03
      1.39418466e-03 1.58110389e-03 -1.85343751e-03 -5.78306941e-03
      -2.90340208e-03 1.19770011e-02 7.92603102e-03 1.94464240e-03
      6.95239985e-03 -1.34037377e-03 1.36012910e-02 -1.69304386e-02
      1.53769385e-02 3.43738240e-03 -1.65849226e-03 -1.23173343e-02
      -1.08899164e-03 2.23738677e-03 4.42515640e-03 3.01812775e-03
      7.54231121e-04 4.37476952e-03 -1.65849226e-03 -1.65849226e-03
      1.25836569e-03 -7.31959473e-03 -1.29127468e-04 1.02578299e-02
      1.30192852e-02 -7.50112208e-03 -9.36181657e-03 -1.35352113e-03
      3.39152385e-03 4.70179245e-02 1.01246946e-02 -4.76086233e-03
      -4.08822251e-03 -3.16253351e-03 -1.83828045e-02 1.36220176e-02
      -5.02430974e-03 -1.60629377e-02 3.11278570e-02 8.33250862e-03
      -7.51889544e-04 -2.08271015e-03 -1.50979273e-02 -1.10159516e-02
      -1.70596805e-03 -8.17648228e-03 -1.57661457e-02 2.57662479e-02
      4.66494355e-03 -2.92716678e-02 1.44216288e-02 2.22277502e-03
      5.97651722e-03 1.76871044e-03 -6.00074371e-03 -2.34459732e-02
      1.61158945e-02 1.56814475e-02 -4.92484309e-02 5.15273586e-02
      -1.93810381e-03 5.47706569e-03 8.81451298e-04 -5.66810044e-03
      -5.73699735e-03 1.47841889e-02 6.14350569e-03 4.27345280e-03
      1.31136635e-02 -2.25928408e-04 -3.17523396e-03 -4.13442077e-03
      -5.66335104e-04 -5.82757825e-03 9.05736629e-03 7.95270142e-04
      1.66380510e-03 3.17379087e-02 -1.75769115e-03 -2.56994157e-03
      -6.46949606e-03 9.65484232e-03 -8.34627077e-03 5.24515379e-03
      -9.09693073e-03 5.96169522e-03 3.77118448e-03 -8.04771390e-03
      -1.30032776e-02 3.37665877e-03 -4.96751582e-03 -5.32011641e-03
      -1.10310313e-04 -2.94477232e-02 7.95270142e-04 7.95270142e-04
      -2.86633917e-03 2.44042091e-03 -9.97572578e-03 -2.43186671e-03
      4.15674457e-03 1.02109192e-02 5.11865923e-03 8.53940845e-03
      1.68217495e-02 4.47505200e-03 3.58872907e-03 3.52570292e-04
      2.47506406e-02 9.53361567e-04 -1.02765318e-02 -3.46884467e-02
      -1.74941868e-02 1.04104402e-02 1.75299812e-02 3.70805641e-03
      -2.83009675e-03 1.08278934e-02 -1.87206152e-03 -1.05431313e-02
      -2.60608234e-02 4.73754806e-03 5.80752548e-03 3.45910080e-02
      7.38384342e-03 3.36178951e-03 3.07401270e-03 -5.09955827e-03
      -1.98806357e-02 -1.96793601e-02 -2.16181353e-02 -2.00276333e-03
      2.80000158e-02 5.95536688e-03 -2.16848566e-03 6.81148935e-03
      -1.42833898e-02 -1.35935023e-02 -1.00146737e-02 3.08483671e-02
      7.40294950e-03 -1.76521149e-02 1.03809303e-02 1.84588954e-02
      -1.45999519e-02 -3.50201502e-02 -3.92579883e-02 1.34380825e-03
      2.28410978e-02 6.49067108e-03 -3.57613415e-02 -5.10373944e-03
      -2.29079789e-03 -1.28971012e-02 -7.21377227e-03 -1.70705672e-02
      -1.44238109e-02 1.62440874e-02 2.01694649e-02 4.12681885e-03
      1.80778597e-02 2.01847292e-02 -5.42368100e-04 -1.21427765e-02
      -3.18748616e-02 -1.53009435e-02 8.37374479e-03 5.15283225e-03
      -1.97434090e-02 1.01902522e-02 1.68159213e-02 1.71864722e-02
      -2.18653623e-02 -6.63950713e-03 -2.13611964e-03 1.34393200e-02
      1.93113424e-02 -3.34126838e-02 3.09264218e-03 8.44089501e-03
      1.25670782e-03 -1.66515615e-02 -9.88085661e-03 2.51348931e-02
      2.59765964e-02 -1.27640124e-02 -2.10025143e-02 8.71151872e-03
      -5.52513404e-04 3.05606853e-02 -2.09798235e-02 1.08833273e-03
      -6.21515233e-03 -2.08913591e-02 3.95976566e-03 -1.14319203e-02
      -1.66363514e-03 7.93228298e-03 1.36505608e-02 -1.86166465e-02
      2.29916256e-03 7.21645681e-03 1.04234908e-02 3.81768798e-03
      2.97081331e-03 6.29410194e-03 -1.66437551e-02 2.33367682e-02
      -1.35873910e-02 -1.13788890e-02 1.25954505e-02 3.63986334e-03
      -1.45373307e-03 -1.19793480e-02 -3.27030779e-03 -1.19780898e-02
      4.67792246e-03 2.43599503e-03 -1.11545343e-03 2.82141543e-03
      5.62408939e-03 1.15444513e-04 -1.24078887e-02 -8.53839796e-03
      8.62846337e-03 2.43599503e-03 -1.41899474e-02 -1.00200148e-02
      1.45789888e-02 9.11933370e-03 1.12404749e-02 -1.32406559e-02
      1.21554406e-02 -7.80282123e-03 -2.87564751e-03 5.20107569e-03
      2.38337961e-05 1.76345892e-02 -1.17424375e-03 -1.20959822e-02
      -2.85779708e-03 1.32136662e-02 2.98392493e-02 -1.80270411e-02
      3.95680137e-04 -5.41122071e-03 -1.73768014e-04 -3.58641031e-04
      -1.53177604e-03 1.38582813e-03 -7.88848381e-03 2.55671446e-03
      1.40375420e-02 3.95680137e-04 -1.31878974e-02 2.31587328e-04
      -3.10072140e-03 1.59060140e-03 6.43728417e-04 -1.49317002e-02
      -2.07960067e-04 3.95680137e-04 3.70716420e-03 -6.34763110e-03
      1.70639728e-03 -4.03057784e-03 -1.50301149e-02 1.45769408e-02
      -7.96484528e-04 1.35873621e-02 -6.50181668e-03 3.95680137e-04
      -8.25803075e-03 -9.28084075e-04 -9.64532082e-04 -3.32335290e-03
      3.16045946e-03 -1.74232014e-02 4.72345436e-03 9.04564187e-03
      -2.96335365e-03 7.60334032e-03 -4.99080576e-04 -6.33093005e-04
      1.78556959e-03 -2.56965938e-03 -4.77512088e-03 -8.71214923e-03
      -2.96335365e-03 -2.96335365e-03 1.23836612e-02 -1.47081842e-03
      -5.21277776e-04 1.18228130e-03 -1.45464309e-03 4.71084379e-03
      -1.05328448e-02 -2.96335365e-03 7.05394987e-03 1.56290270e-03
      -1.91663764e-03 1.55258039e-03 -7.27805891e-04 4.37572133e-03
      -3.35042854e-03 -9.31930263e-03 5.02978638e-03 -6.97862124e-04
      1.60782912e-03 -1.42866757e-05 6.92986359e-04 -2.59021833e-03
      4.53143381e-03 7.21333688e-03 -6.45660283e-03 1.30296284e-02
      -1.48300792e-03 2.40340317e-03 -1.16855430e-04 -8.40885798e-04
      -1.32575713e-03 -2.28390942e-04 1.55802164e-03 -3.60015640e-03
      -1.48300792e-03 -1.48300792e-03 -6.77742902e-03 -2.79427128e-04
      -6.42630388e-04 -1.40095421e-03 3.73172254e-04 -1.59295660e-03
      -7.43268570e-03 -1.48300792e-03 -4.87355934e-03 -5.41747781e-03
      3.17994459e-03 -5.27114607e-04 8.66222254e-04 -1.06420612e-03
      -1.02786371e-03 -5.20583417e-04 1.20967021e-02 5.53518068e-03
      -1.24213789e-02 4.34720423e-03 6.70504640e-04 3.82003305e-03
      -2.05423799e-03 -4.02541831e-03 -1.25992633e-02 1.22408243e-02
      3.81258945e-03 -4.85853199e-03 -1.70071679e-03 -3.21543863e-04
      -4.70659084e-04 1.89059894e-04 -6.69786998e-04 -1.26802141e-03
      3.81258945e-03 3.81258945e-03 -2.19849143e-02 -4.63767326e-04
      -4.07786341e-04 3.52012197e-04 -4.59626637e-04 7.86033052e-05
      5.53023594e-04 3.81258945e-03 1.83960833e-02 -1.01853684e-02
      8.58098152e-04 3.32716294e-03 -3.76981124e-03 -2.90643447e-03
      -1.18977542e-03 -1.09552676e-02 -2.99707032e-03 3.81258945e-03
      -2.08390728e-02 6.31546462e-03 7.18564144e-04 -1.03633979e-03
      -3.80500546e-03 -3.81171075e-03 -7.65890675e-03 -3.24880169e-03
      2.86107557e-03 -1.39742950e-02 -6.86086249e-04 -1.43674755e-04
      3.56730353e-03 -1.32007373e-03 -5.16759173e-05 4.18053055e-03
      2.86107557e-03 2.86107557e-03 -8.14014208e-03 -7.17558106e-03
      -5.03344461e-03 2.31823921e-02 6.80752972e-04 -1.02264876e-03
      -5.65474294e-03 9.56651289e-03 2.86107557e-03 -8.86994414e-03
      6.34486461e-03 1.74694578e-03 -1.10920490e-04 -1.14010170e-03
      -2.15411722e-03 -4.24117316e-03 3.06732283e-04 2.86107557e-03
      -3.75394971e-04 3.02322878e-04 1.47491833e-03 4.76694200e-03
      2.40148185e-03 5.09866513e-03 -4.27192589e-03 -6.35686750e-03
      -8.43814015e-03 3.05495644e-03 1.21444082e-02 -2.29708031e-02
      2.52427924e-02 -1.02788154e-02 -3.37668625e-03 4.80594905e-03
      -5.13697742e-03 6.99695293e-03 1.47690484e-02 2.85591390e-02
      -3.23257446e-02 3.70516144e-02 -4.40928433e-03 -1.38179157e-02
      1.17750904e-02 6.38659159e-03 2.17364170e-03 -1.67034013e-04
      7.63409026e-03 -3.87495593e-03 1.94634311e-02 -1.31248897e-02
      6.53829845e-03 -7.61686731e-03 1.73311238e-03 3.07561550e-03
      -1.31542664e-02 2.04862319e-02 4.77277488e-03 1.00767221e-02
      -1.90680828e-02 -1.66269578e-02 -2.02341471e-02 2.17364170e-03
      -4.57811588e-03 -7.60136696e-04 2.54783430e-03 2.30456963e-02
      2.65909336e-03 -1.10555859e-02 -9.45787318e-03 6.92441082e-03
      -1.15936506e-03 -7.62745598e-03 -5.22662979e-03 -5.84347639e-03
      5.21324691e-04 3.46237706e-04 3.66467540e-03 1.64836831e-02
      -1.07755605e-03 -3.43807437e-03 -4.84397635e-03 -1.42865991e-02
      3.28074186e-03 7.22798344e-04 3.28239496e-03 -1.33050922e-02
      4.18229867e-03 -1.46284746e-02 -1.42192433e-03 -1.06749218e-02
      -1.09632388e-02 -8.25981796e-03 2.39256490e-03 -3.55703902e-04
      -3.55703902e-04 2.55215503e-02 -1.05192671e-02 -2.58586626e-03
      -2.72581843e-03 1.69783342e-03 -9.06402152e-03 -2.38485411e-02
      5.22542698e-03 1.45529313e-02 1.72261354e-02 9.32995509e-03
      -2.98947887e-03 -7.35294772e-04 1.10655907e-03 -7.07834074e-03
      3.05893389e-03 -3.66917951e-03 6.11001067e-03 7.19393184e-03
      -1.21816927e-04 -2.49576056e-03 1.58381718e-03 1.08471476e-02
      -4.71445080e-03 -3.42731364e-02 8.82943813e-03 5.92967728e-03
      1.69581771e-02 1.72696763e-03 4.64699726e-04 5.98620810e-03
      1.61304809e-02 -1.12944348e-02 1.29435565e-02 -1.79356076e-02
      -1.44212293e-02 1.00318110e-02 4.16368712e-03 -2.01131427e-03
      1.69615191e-03 -2.47470494e-02 -3.11322766e-03 -3.11124194e-02
      8.07912461e-03 -3.40329320e-03 6.40157005e-03 6.29318459e-03
      6.79516094e-03 9.20110475e-03 -1.52513599e-02 1.44784125e-02
      4.68182843e-03 5.61310258e-03 -3.12891938e-02 -2.45478633e-03
      -6.37602899e-03 -2.97026621e-04 2.68171486e-02 -2.38451641e-02
      -9.74014122e-03 -1.30053088e-02 3.38511914e-02 -3.10082585e-02
      -2.26126127e-02 -1.13553563e-02 2.12995969e-02 1.42083550e-02
      1.75339989e-02 1.22205643e-02 9.97141190e-03 5.61310258e-03
      -1.86713189e-02 -1.31769795e-02 -2.26697810e-02 -1.34126972e-02
      -1.32076116e-02 3.03909928e-03 1.61477327e-02 -1.98252499e-02
      7.17706140e-03 -1.76788364e-02 -9.43748467e-03 -8.08130950e-03
      -4.52729501e-03 -1.28367338e-02 -8.69659148e-03 1.26309879e-02
      -1.38274580e-02 8.42148531e-03 -3.25811328e-03 -1.22766364e-02
      -8.86710454e-03 -1.91561331e-03 -5.04620979e-03 -2.41646240e-03
      3.47572402e-03 3.53065599e-03 4.11192141e-03 -8.57546739e-03
      4.72007116e-04 -7.85088167e-03 -8.77087750e-03 -6.71851449e-03
      1.83351301e-02 4.11192141e-03 3.98759264e-03 5.08701475e-03
      -1.07938107e-02 -8.46575759e-03 -1.19143713e-03 -1.24583417e-03
      8.57022998e-04 -5.81326988e-03 -3.37221101e-03 -9.52368882e-03
      -5.81074215e-04 -3.49297351e-03 -1.90138584e-04 -8.52692057e-04
      9.62480379e-04 1.21162403e-02 1.33849252e-02 6.81159960e-04
      -9.26558767e-03 -6.04412938e-03 -5.80093917e-03 -5.19310881e-04
      5.94657613e-04 1.27339270e-03 4.52618040e-02 -1.86279081e-02
      -1.59051258e-03 2.40355246e-02 -3.38356593e-03 -1.07185391e-03
      -3.13400780e-03 -2.82875542e-03 4.98850225e-03 -8.77530966e-03
      -8.77530966e-03 -9.31122713e-03 3.21399271e-02 -3.79337929e-03
      -2.58699851e-03 -3.42996302e-03 -5.07126190e-03 2.35302486e-02
      1.09414132e-02 2.04561353e-02 2.59890803e-03 -2.45349063e-03
      -3.49929347e-03 7.23646197e-04 1.08833017e-03 3.84670893e-05
      3.63578112e-03 2.56563332e-02 8.71062279e-03 2.09453676e-04
      -6.74915442e-04 -1.52709265e-03 -3.80796235e-04 -2.37190485e-04
      -4.17615753e-03 2.54617017e-02 -1.45722907e-02 -2.74487007e-02
      1.19158737e-02 3.97315336e-04 -3.05538834e-03 -7.96251406e-04
      1.42001663e-03 2.85951002e-03 -7.08100293e-03 -1.45722907e-02
      -2.19995696e-02 5.90573996e-03 -9.11066309e-04 -8.25176307e-04
      -1.65616744e-03 4.71518550e-04 3.85733368e-03 -1.45722907e-02
      1.74172726e-02 -4.85238759e-03 -1.12671789e-03 1.08971214e-03
      -1.49095824e-04 6.55228680e-04 1.00580929e-03 -2.27351440e-03
      3.30786817e-02 1.26470244e-04 -1.37591455e-03 -6.77420991e-04
      1.06233323e-03 -5.66318864e-04 1.00276852e-03 2.24348414e-03
      1.75855253e-02 3.93939838e-02 -1.58432685e-02 -9.28761903e-03
      1.39561645e-03 1.21390243e-04 1.64033042e-03 -1.30046706e-03
      4.91573534e-04 -7.06819538e-03 -1.58432685e-02 -2.02027913e-02
      2.51917653e-02 1.80793356e-03 -2.65467417e-04 2.18971563e-03
      -1.60538839e-04 -2.64102779e-03 -2.15463806e-02 -1.58432685e-02
      -1.74756220e-03 -2.75057484e-03 -3.64412874e-04 4.07963758e-04
      7.26556755e-04 -3.02332628e-05 -8.73155775e-04 1.59662999e-02
      3.11909858e-02 5.38431387e-03 -4.30810126e-03 -1.82792160e-03
      -4.50406835e-04 6.50223228e-04 -9.85017861e-04 -7.97695655e-04
      1.94061606e-03 1.39593501e-02 1.66811924e-02 3.78771722e-02
      1.58970361e-03 1.23864273e-03 5.69202844e-03 3.68652050e-03
      -2.97957286e-03 -3.66398655e-02 -1.42228920e-02 -1.42228920e-02
      1.39783602e-02 -3.20373406e-03 -7.47746497e-04 6.01585489e-03
      1.13949208e-02 1.35314120e-02 2.29889620e-02 -1.42228920e-02
      4.52123582e-03 -4.08345740e-03 -1.50210108e-03 -1.87469068e-05
      -5.76796429e-03 -3.27510689e-03 -1.36715383e-03 -3.41355917e-03
      5.20970207e-03 -7.75411259e-03 -1.33496160e-02 -9.96333081e-04
      -5.81520493e-04 -7.26320082e-03 -5.69713535e-03 -4.41358099e-03
      -2.57886597e-03 -1.51115513e-04 5.87906269e-03 1.46221288e-03
      4.47336491e-03 7.90587999e-03 -1.49531541e-02 2.68517993e-03
      -3.36477347e-02 3.26555520e-02 5.87906269e-03 5.87906269e-03
      -1.27931591e-02 -9.05998424e-03 1.50005864e-02 6.11795520e-04
      -1.76232569e-02 -5.20615540e-02 3.04282047e-02 5.87906269e-03
      -4.55575529e-04 -6.41392265e-03 5.32896305e-03 7.09419092e-03
      -5.52966492e-03 4.05516650e-04 -4.20438638e-03 -2.18743901e-03
      -4.04759776e-03 -4.55575529e-04 -2.10937252e-03 5.62455086e-03
      7.46051315e-03 -1.22019295e-02 5.16252266e-03 -3.58234695e-03
      -6.63689279e-04 -4.41049738e-03 1.90327642e-04 3.71932937e-03
      -2.32874267e-02 8.66863504e-03 -1.35861803e-02 -6.31171104e-04
      -2.74043810e-02 4.09345925e-02 -1.21370610e-03 -4.55575529e-04
      -3.47799528e-03 9.65917949e-03 8.55351426e-03 -1.73097569e-02
      1.32111013e-02 -1.66298170e-02 1.72145478e-02 5.60407620e-03
      2.20166333e-03 -4.07172553e-03 4.04015416e-03 4.07678977e-04
      3.51441256e-03 3.95848881e-04 -3.32313153e-04 -2.15236377e-03
      3.29535222e-03 2.20166333e-03 -2.04652268e-02 8.10269918e-03
      1.12039074e-02 2.35839691e-02 -3.13134864e-03 -1.08255800e-02
      -3.13794427e-02 2.20166333e-03 -1.24093546e-02 -4.98410687e-03
      9.42998007e-03 -1.66981202e-03 -1.07808057e-02 8.41490738e-03
      -3.05408915e-03 1.30812696e-03 4.61932318e-03 -4.49571060e-03
      -5.31127956e-03 9.36353207e-03 -4.50335722e-03 2.20166333e-03
      2.20166333e-03 -1.18064042e-02 -1.21685630e-02 2.74122343e-03
      6.09677145e-03 -1.06865298e-02 1.76875771e-03 1.16893584e-02
      1.06629636e-02 -3.15231830e-03 -4.13974427e-04 -2.43210141e-02
      -1.52003675e-04 -8.12569109e-04 -4.35092021e-03 -1.09323487e-02
      -1.70980431e-02 5.04116248e-03 1.14432711e-03 1.76770203e-02
      -1.67044327e-02 -2.55233119e-03 1.59028769e-02 -2.48976750e-03
      -1.37457636e-03 -9.83986887e-04 4.24581626e-03 -3.03298198e-02
      -5.84437093e-03 -1.26557900e-02 5.36756543e-03 2.17737025e-03
      -3.02931247e-03 1.99968065e-03 -2.30591744e-02 4.24581626e-03
      -2.08383352e-02 3.56578492e-02 -7.68534560e-03 -4.23175748e-04
      -1.62405393e-03 4.66304319e-03 -7.81702902e-03 -2.67706364e-02
      -1.75553281e-02 1.34506579e-02 2.21938416e-02 1.63326748e-02
      8.42987373e-03 -3.98151344e-03 1.16376765e-02 3.01003020e-05
      -3.85831506e-03 -1.53317535e-02 -2.68798396e-02 1.29909543e-02
      2.79649477e-02 8.97037704e-03 -4.42370167e-03 -8.73119425e-05
      -1.84027925e-02 -9.48759727e-03 -1.94907542e-02 -2.65734401e-02
      1.15314219e-02 1.34744551e-02 -8.20383953e-04 -7.12854043e-03
      5.12194401e-03 3.36716254e-03 -3.56753683e-03 -6.86041685e-03
      -1.40694771e-02 1.22815482e-02 1.85873117e-02 -9.24111065e-03
      8.93884525e-03 -2.42239553e-02 -8.99839774e-03 -4.83362377e-03
      3.38880271e-02 -1.60307605e-02 -2.57480796e-02 -1.02428561e-02
      1.94040257e-02 9.70044546e-03 -8.27131048e-03 1.83117166e-02
      9.90924705e-03 4.18073498e-03 2.27433294e-02 -1.61655433e-02
      -1.33222500e-02 6.94964547e-03 1.71483541e-03 -1.82143692e-02
      -1.77489989e-03 -5.24101779e-03 -1.17587829e-02 -1.04347337e-02
      -1.10562635e-03 -1.71100516e-02 1.39941033e-02 2.29619653e-03
      -2.96188630e-02 1.56959835e-02 4.18073498e-03 4.18073498e-03
      1.66920712e-03 -2.51281774e-03 -2.47413777e-02 7.54828937e-03
      8.94401863e-04 -3.64967855e-03 2.01452663e-03 -1.58266928e-02
      4.89366183e-04 -6.24194276e-04 -1.97313447e-03 -1.94082432e-03
      -1.46376563e-03 2.71419645e-03 3.37663442e-02 -4.06368729e-03
      7.59862829e-03 3.89012834e-03 -7.43422471e-03 -1.44722243e-03
      -5.86527749e-04 -2.20567803e-03 4.68741870e-03 1.70565792e-03
      1.36532485e-02 6.39204308e-03 -3.00899241e-03 -5.76938409e-03
      -3.37531418e-03 -4.49486397e-04 -1.17932109e-03 1.69759858e-02
      -2.67610303e-03 -2.67610303e-03 -2.67610303e-03 -2.03707255e-02
      -1.93323549e-02 -5.94316341e-04 1.42508000e-03 -1.74286030e-03
      2.79781315e-02 2.18689051e-02 -1.22875366e-02 3.39697562e-02
      6.54966524e-03 -1.36456313e-03 -3.57306330e-04 -5.77202125e-04
      8.84610577e-04 3.71857323e-02 -1.35838017e-02 -1.35838017e-02
      3.90789919e-02 1.01203155e-02 -1.45721177e-04 -2.84088426e-04
      -9.01449879e-04 1.11446064e-02 1.42546287e-02 -6.61819708e-03
      -1.35838017e-02 -1.99459251e-02 1.02348439e-02 -4.10174904e-03
      1.28942460e-03 -1.90172708e-04 8.82883440e-04 1.79125089e-02
      -2.12154500e-02 -1.49882818e-02 9.84427892e-03 1.76384617e-02
      -5.64840273e-04 1.34680339e-03 -9.65909625e-04 3.77843360e-04
      -5.55164472e-04 -4.31694044e-03 -3.78120616e-02 1.27234068e-02
      6.45427126e-03 1.19298289e-03 1.81856810e-03 2.62049120e-03
      2.45148060e-03 -5.55164472e-04 5.00861928e-03 1.73781663e-02
      2.09764531e-03 1.89485005e-03 1.87715821e-04 3.36312084e-03
      7.00565102e-03 -5.55164472e-04 8.13841447e-03 -2.33963225e-02
      -2.55720392e-02 8.03895481e-03 7.39887683e-03 2.75589619e-03
      -4.14708542e-04 -2.13748566e-03 4.37304005e-03 1.66327402e-03
      2.03842800e-02 1.51815070e-02 1.32198893e-02 3.61880474e-03
      9.80509073e-03 7.33374385e-03 4.38051810e-03 9.78659745e-03
      -1.16006453e-02 1.33879846e-02 7.53164245e-03 1.55839836e-03
      7.74256233e-03 -3.19678686e-03 1.95530616e-03 -8.04582611e-03
      -1.16006453e-02 -7.72573333e-03 3.85429896e-02 8.44202004e-03
      -2.27423618e-03 1.44827990e-02 -4.70733317e-03 2.09977897e-03
      -1.18620666e-02 -1.16006453e-02 8.21981765e-03 1.93742700e-02
      1.24282502e-02 2.02869121e-02 1.25405537e-02 7.01590069e-03
      8.98175500e-03 1.16547747e-02 4.72898828e-03 2.44499631e-02
      2.43080799e-02 1.30051002e-02 1.75527018e-02 2.38948166e-02
      5.20396745e-03 3.51536227e-03 -1.18069642e-03 -1.69594157e-02
      2.67226938e-02 3.64301503e-02 6.72088144e-03 6.23396132e-03
      1.18883858e-02 1.55947625e-03 8.51715077e-03 -3.37606259e-02
      -1.66106205e-02 -1.66106205e-02 2.83111036e-02 7.90028553e-03
      4.09837021e-03 7.11405091e-03 9.81613807e-03 1.93240307e-02
      -1.95282255e-03 -1.66106205e-02 1.42607633e-02 1.62331276e-02
      1.43303610e-02 1.07801193e-02 2.20760144e-02 6.62950380e-03
      1.31344679e-03 -1.20895077e-02 -3.18876579e-02 -3.64986388e-03
      8.25445447e-03 2.00859569e-02 1.83545109e-02 1.93989091e-02
      6.56470796e-03 -4.14705602e-04 1.52411014e-02 -6.63564429e-02
      6.71228766e-03 1.09287640e-02 1.13872848e-02 1.13695543e-02
      -4.49866802e-03 7.28782499e-03 -3.80295441e-02 2.78582815e-02
      6.71228766e-03 7.03567546e-03 1.44172274e-03 -2.39767153e-02
      1.35727907e-02 -1.15885278e-02 7.28391437e-03 -4.74699400e-02
      6.35323068e-03 6.71228766e-03 -9.73279402e-03 1.27871037e-02
      3.04327649e-03 2.63273660e-02 3.06250248e-03 1.74144674e-02
      -1.56903397e-02 1.68992095e-02 -3.24582830e-02 -1.30744176e-02
      1.59678496e-02 -3.21575478e-02 7.77952559e-03 -2.21715821e-03
      4.28418405e-02 -3.01655680e-02 2.96873483e-03 -2.98182596e-03
      3.85395950e-04 1.25456247e-02 -3.48416306e-02 -1.64231285e-03
      1.01650809e-03 2.17053462e-02 -2.54037064e-02 7.52182212e-04
      -4.62492084e-04 1.05540222e-02 1.48371104e-02 1.10031972e-02
      3.06272530e-03 1.29272891e-02 1.71891153e-02 -1.78469624e-02
      -1.05955882e-03 1.85999703e-02 -1.18661178e-02 2.08963454e-03
      -2.90688463e-02 -1.64201632e-02 -8.03221297e-03 3.69177386e-02
      -1.81381144e-02 -1.20565956e-02 1.23097477e-02 -4.92831180e-03
      1.82397512e-03 1.36033809e-02 4.20985371e-03 2.64658052e-02
      5.77768078e-03 -3.35807865e-03 -3.10586439e-03 8.03981069e-03
      -3.47983721e-03 1.37133645e-02 6.15637936e-03 1.10824651e-03
      1.20660977e-03 9.38698277e-03 1.38140507e-02 5.56932762e-03
      9.43957176e-03 2.35583428e-02 -3.36997188e-03 -2.11301111e-02
      -2.93819676e-03 -2.28339969e-03 -2.20428910e-02 2.36698147e-02
      5.56439918e-04 7.37520866e-03 -2.52201725e-02 9.08981450e-03
      -3.99090117e-03 -2.22644326e-03 1.86210591e-02 2.86294241e-03
      1.84182134e-02 -2.25400571e-02 -1.06345350e-02 2.11966299e-02
      -3.38651538e-02 -3.14605311e-02 -4.02935743e-02 -1.57447364e-02
      -4.15372662e-03 4.83617075e-02 -1.10768452e-02 1.04743494e-02
      3.54357474e-02 -4.38206494e-02 -4.41433080e-02 2.42848508e-02
      1.65763386e-02 -2.48480961e-02 3.64781506e-02 2.69169500e-03
      1.51133826e-02 4.42946423e-03 -2.09133364e-02 -1.25490287e-02
      1.42558049e-02 1.65763386e-02 -1.59995891e-02 3.43673229e-02
      6.75991969e-03 7.28538260e-03 2.13616937e-02 -7.37472549e-02
      -5.37725538e-02 -2.78680376e-03 1.65763386e-02 -6.63435645e-03
      1.43812206e-02 1.09485425e-02 3.36149260e-02 -2.06020125e-03
      -2.84403432e-02 -3.04118879e-02 2.81657483e-02 1.65763386e-02
      -1.41644478e-02 3.00475396e-03 5.22815762e-03 2.83963769e-03
      7.71055091e-03 1.90560182e-03 -3.18402536e-02 5.14062773e-03
      7.46952556e-03 -4.82490920e-02 4.57546068e-03 4.99304105e-03
      -1.99831207e-03 4.57043701e-04 3.88787664e-03 -4.27335594e-03
      -7.47410441e-03 -5.13583748e-03 -1.70885827e-02 3.99794849e-03
      -6.21400494e-03 -3.02778720e-03 1.01138968e-02 3.33439675e-03
      -7.48694036e-03 3.19171324e-02 -2.32833833e-03 -3.60886082e-02
      -2.59206956e-03 8.59339815e-03 -3.10155470e-03 4.51580202e-03
      3.15931207e-03 -1.58843212e-03 4.07907106e-02 1.21998452e-02
      -2.52020196e-03 -4.08475893e-03 5.42687345e-03 1.26627292e-02
      1.08771294e-03 -1.88528951e-02 -2.13946365e-02 -7.83233903e-03
      -1.14428923e-02 -1.67543329e-02 1.00835143e-02 -1.51155256e-02
      7.31898530e-04 -2.98175076e-03 -2.16957182e-02 3.81528842e-03
      3.62687707e-02 -1.57051608e-02 -2.66294796e-02 2.06688736e-02
      -2.21908428e-02 -1.03819957e-02 -4.59021609e-03 1.24000899e-05
      -1.83318816e-02 -2.92735710e-03 9.67738032e-03 1.27614075e-02
      -4.06160112e-03 2.28162040e-03 -3.96859599e-03 1.96227361e-03
      -2.46819928e-02 2.64893826e-02 1.32695669e-02 -1.59719773e-02
      2.59746350e-02 2.46689096e-03 -1.51871452e-02 -3.44370463e-04
      4.06302465e-03 -6.48714276e-03 1.57104526e-02 5.55158267e-03
      2.61143576e-02 1.71728164e-03 3.49752547e-04 9.68518667e-04
      -3.26534326e-04 1.76120214e-02 -3.16885747e-02 -4.71955209e-05
      -4.71955209e-05 3.27267013e-02 -1.99797726e-03 1.57266622e-03
      1.61553209e-03 -5.03055868e-04 2.79842410e-03 -1.69132277e-02
      -2.41626240e-03 -2.58622784e-02 1.13266939e-03 2.97180079e-02
      1.51743379e-03 -2.37722081e-04 2.78064923e-04 1.12540862e-02
      -3.84549089e-02 -4.71955209e-05 -4.71955209e-05 -4.01693303e-03
      3.28568406e-02 5.00631693e-04 9.83623322e-04 -2.70740944e-03
      2.36994047e-02 -2.05178279e-03 -2.05178279e-03 -2.05178279e-03
      1.98800000e-03 -8.86646658e-03 6.92687463e-03 1.23024813e-03
      4.82021645e-03 5.10454120e-04 -9.57256928e-03 -3.94414179e-02
      -1.64208319e-02 5.54713281e-03 8.55911698e-04 4.23036842e-03
      -2.81633087e-03 2.81968107e-03 1.75843462e-02 -2.76911911e-02
      -4.83180303e-03 -3.26997936e-02 4.36510481e-02 1.21531961e-02
      4.55712387e-03 1.16917188e-03 8.59975629e-03 2.11806279e-02
      4.64257738e-03 4.66796197e-03 -4.17194422e-03 2.27707764e-03
      -3.16355960e-04 -2.82746390e-03 -3.93986609e-03 8.31273105e-03
      -2.17000507e-02 -1.48603870e-02 -2.58168969e-02 -9.03397333e-03
      -1.23839779e-02 1.19001297e-02 -1.15460046e-02 -2.03971826e-02
      -2.01251712e-02 -1.47799309e-02 1.43575352e-02 1.98210441e-02
      2.80519053e-02 -7.53305294e-03 1.75316613e-02 -1.15541620e-02
      -1.62808578e-02 -2.62780357e-02 1.21009173e-02 3.17089707e-02
      -1.16453003e-02 -6.59462530e-03 -5.82415285e-03 6.28540199e-03
      -3.84688005e-02 -1.24133620e-02 4.89190081e-03 1.15281828e-02
      3.10017932e-02 -2.81236810e-03 -1.00172786e-02 6.86642155e-03
      1.61000539e-03 1.58730429e-02 -1.22896992e-02 1.20080411e-02
      1.18510947e-02 3.36871552e-03 6.25755219e-03 3.04527674e-02
      2.56909207e-02 1.72131807e-02 4.02966747e-03 -4.06746566e-03
      -2.92489231e-02 -9.46847908e-03 -2.69520767e-02 -9.85795865e-04
      3.44028249e-02 4.79683205e-02 2.47289948e-02 -1.13824150e-02
      -9.28820018e-03 -3.38564478e-02 -5.65119134e-03 -2.20145308e-03
      -4.55946103e-03 2.34417021e-02 4.22566645e-02 2.18407251e-02
      3.46917361e-02 -2.72625387e-02 -5.85678704e-02 -2.20216326e-02
      -8.29285011e-02 -2.49299984e-02 2.86366865e-02 5.46295084e-02
      5.79597317e-02 1.87613070e-02 -4.66255099e-03 -2.09002271e-02
      8.31573643e-03 -7.99513608e-03 -2.49768305e-03 4.81786067e-03
      2.73170713e-02 1.82241201e-02 -3.44620878e-03 1.39367371e-03
      -1.74562703e-03 1.28529938e-02 -7.00693205e-03 4.66834661e-03
      2.50563072e-03 -6.63324771e-03 4.07782616e-03 -3.28876600e-02
      9.48354043e-03 -5.40331798e-03 -1.52088180e-02 -6.84375912e-02
      -1.45753641e-02 6.69905357e-03 2.32461132e-02 2.65985653e-02
      1.78042892e-02 2.46426668e-02 -1.07587464e-02 -5.43943082e-04
      -2.64630187e-04 -4.21817321e-03 1.76227838e-03 -2.78044976e-02
      5.25171636e-03 -2.46111639e-02 2.60625836e-02 -6.63712202e-03
      1.61163474e-03 6.54002232e-03 -8.54622480e-03 2.23408937e-02
      -7.77810067e-03 2.27986672e-03 -3.50513570e-02 1.04438718e-02
      -2.24885810e-03 -4.36083879e-03 1.53830564e-02 -6.84530754e-03
      1.76966526e-02 -3.65932286e-03 -9.73544829e-03 -1.50128594e-02
      7.29562668e-03 -7.38754403e-03 1.64790135e-02 2.35680863e-02
      2.58326787e-03 1.85907129e-02 -2.11178288e-02 -9.88833886e-03
      -5.24720699e-02 1.20569831e-02 1.77056585e-02 1.98863912e-02
      2.06649415e-02 1.65862422e-02 2.85527203e-02 -1.07401470e-03
      -1.06933536e-02 -2.00460348e-02 -1.82512160e-02 1.09874504e-02
      1.38615035e-02 1.76180713e-02 7.78353540e-03 -1.01327552e-02
      -2.73172790e-03 -1.07392622e-02 -2.49930546e-02 -3.33622261e-03
      1.25112897e-02 7.92283192e-03 8.07087962e-03 6.27914863e-03
      -1.80848464e-02 -6.61309576e-03 -5.51734492e-03 -2.58032326e-02
      -3.24662142e-02 1.86997987e-02 4.72691357e-02 2.11382881e-02
      -9.16326791e-03 4.14416165e-04 -5.94893005e-04 -9.90329217e-03
      -1.49382576e-02 -1.62991174e-02 2.86704618e-02 5.73174730e-02
      8.97995476e-03 -3.99825489e-03 -3.42199840e-02 -9.23903100e-03
      -1.85659825e-04 1.23290876e-02 1.58125570e-03 3.66305746e-02
      -1.62916314e-02 -6.26558787e-04 -2.59583001e-03 -3.77139784e-02
      -1.75534766e-02 -1.08095109e-02 2.84902751e-03 -8.55562091e-03
      7.79490685e-03 -1.65707129e-03 -1.98740475e-02 6.90464908e-03
      -4.50660028e-02 -2.35717371e-02 3.97990830e-02 1.16860354e-02
      -5.10509918e-03 1.75433848e-02 1.58750899e-02 -5.13042137e-03
      1.06158908e-02 -2.09216233e-02 -1.73845347e-02 -2.80759186e-02
      -6.59415778e-03 6.80761132e-03 3.09911016e-02 -1.37536842e-02
      -9.75336600e-03 2.99640540e-02 -1.67400911e-02 -1.56288184e-02
      1.60833225e-02 -1.19047961e-03 1.08158346e-02 1.11813722e-02
      -2.19069645e-02 -4.05539386e-02 -8.20758380e-03 1.27782915e-02
      -4.11367742e-03 2.45353207e-02 -3.66417617e-02 -2.78053004e-02
      2.36279727e-03 -6.72526751e-03 2.69278674e-03 -2.25487631e-03
      1.95696857e-02 4.16748784e-03 -1.06319673e-02 -1.65604763e-02
      -1.62059553e-02 -7.53050810e-03 -1.65158361e-02 -3.59770842e-03
      1.06797181e-02 5.93762472e-03 -5.74372429e-03 1.15378499e-02
      -2.44102851e-02 -1.44717619e-02 -1.21021280e-02 4.25212551e-03
      1.85068101e-02 2.17401274e-02 1.41616818e-02 7.11658830e-03
      7.53423665e-04 -6.15674397e-03 -1.67876873e-02 2.99602677e-03
      3.38369701e-03 4.69639292e-03 -1.14795584e-02 9.71058011e-03
      -4.02830821e-03 -1.08236503e-02 -4.29780502e-03 -1.48458797e-02
      -8.08815472e-03 3.44357686e-03 -3.22746183e-03 -1.58494040e-02
      -2.83141970e-03 -4.02830821e-03 6.40760269e-03 4.75878408e-03
      -2.47431104e-03 -2.83085019e-03 -3.24663171e-03 1.05977571e-02
      8.76370259e-03 2.02027755e-03 -4.02830821e-03 2.99601704e-02
      1.10964011e-02 -1.69842169e-02 -1.02492105e-02 -3.46828741e-03
      -4.71295184e-03 -1.98466945e-02 -1.52988676e-02 -6.65527629e-03
      6.84533361e-03 3.76803875e-02 -8.09479319e-03 -1.56134386e-02
      9.11408756e-03 -8.63782689e-03 -7.20395520e-03 9.69320186e-04
      7.86914211e-03 1.38789022e-04 -6.46277610e-03 -3.49634746e-03
      1.52577823e-02 1.48066804e-02 -7.86037650e-03 1.78927258e-02
      4.29085568e-02 -3.68527099e-02 -1.92385109e-03 2.70796032e-03
      -1.14310551e-02 1.55203780e-02 1.01288613e-02 -1.94195397e-02
      -1.94443180e-03 -4.17911448e-03 4.39204881e-03 -9.85723548e-03
      1.25555182e-02 -2.37317048e-02 6.38531754e-03 4.22562053e-03
      -1.16697419e-02 1.71844810e-02 -3.46302707e-03 -3.68527099e-02
      -2.79890820e-02 5.45525216e-02 -2.30407016e-03 3.51605867e-03
      1.67643081e-03 -1.56423030e-03 2.07379484e-03 -5.91484318e-03
      -1.81956519e-03 5.15256897e-02 -7.51286931e-03 2.99046608e-03
      -4.64192926e-05 1.21981325e-02 2.82751676e-03 -4.74239979e-03
      -2.02017110e-02 -1.96311320e-03 4.45483886e-02 -1.30712064e-02
      5.30415028e-03 5.59791038e-03 -2.65630428e-04 2.49064760e-05
      1.82749145e-03 7.92522973e-04 -1.74412969e-02 -1.50070032e-02
      -2.59160157e-02 4.54361143e-04 -3.80131241e-04 4.89159254e-03
      8.32785619e-04 6.53808936e-04 1.70787401e-03 -1.81956519e-03
      -1.81956752e-03 -1.81956519e-03 1.09159043e-02 4.65450156e-03
      9.02673602e-03 -4.47136629e-03 -8.49453826e-03 -1.17497388e-02
      3.28631997e-02 1.93143785e-02 -1.45107759e-02 -6.23700628e-03
      2.01665703e-02 2.80944491e-03 -4.46735416e-03 -4.74253297e-03
      1.07286526e-02 -4.69368696e-03 -2.58957502e-02 -4.61328914e-03
      -7.04559591e-03 2.84187263e-04 -8.78744945e-03 -1.20992120e-02
      -2.61134794e-03 1.12054460e-02 1.65318847e-02 -1.75156759e-03
      4.22926992e-03 5.57137374e-03 6.25276647e-04 -4.34587291e-03
      -4.09297086e-03 -9.78251267e-03 2.79389899e-02 -3.17521952e-02
      -4.16632779e-02 -1.85937677e-02 8.54422059e-03 4.22926992e-03
      1.52350366e-02 1.39428824e-02 -1.44162672e-02 4.95863147e-03
      -1.02850599e-02 -1.43358884e-02 -1.49492817e-02 -8.51395074e-03
      -7.13638356e-03 2.70165987e-02 2.82211863e-02 -5.28789032e-03
      1.31362211e-03 -7.12151220e-03 -8.31655692e-03 9.15265549e-03
      5.24931261e-03 6.98528485e-03 -8.28951132e-03 -1.26885427e-02
      -2.04243120e-02 2.31048372e-03 -3.33751142e-02 -3.23334858e-02
      -2.85129864e-02 4.24279645e-03 1.67215697e-03 1.27407417e-04
      2.09905878e-02 2.36417138e-04 -5.85898757e-03 -1.73337013e-02
      -4.72908653e-03 -1.33970343e-02 4.37049083e-02 1.67215697e-03
      -4.23820363e-03 4.37956955e-03 3.12140048e-03 1.36245564e-02
      1.95111390e-02 1.09828077e-02 1.58350524e-02 -1.00714145e-02
      -7.00811716e-03 -1.99076142e-02 -5.83526604e-02 -7.99423177e-03
      1.19732544e-02 1.84153542e-02 2.96321064e-02 2.11939169e-03
      -1.06400903e-02 -2.11971868e-02 9.00205865e-04 1.39632626e-02
      1.09498557e-02 1.20574739e-02 1.61661394e-02 1.41935078e-02
      -1.42567279e-02 1.22936917e-02 -5.44205355e-03 -1.48009192e-02
      1.23616529e-03 5.81559632e-03 -1.44185759e-02 2.15150341e-02
      1.68803167e-02 -2.47742683e-02 -1.85684431e-02 -1.94258261e-02
      -1.29496614e-02 -2.35277917e-02 -1.61271077e-03 2.41567288e-03
      1.00112911e-02 9.73714795e-03 2.63784919e-02 -1.60314632e-03
      -1.47068584e-02 1.06496355e-02 1.40149165e-02 -8.19419976e-03
      -1.45717117e-03 -8.15321133e-03 -9.34597757e-03 1.86237935e-02
      1.79087538e-02 -1.18496418e-02 -1.10880584e-02 -2.75751197e-04
      -9.19862185e-03 -3.81094427e-03 2.43225191e-02 4.55607893e-03
      -3.46385990e-03 -1.86647996e-02 -2.45006438e-02 1.80133700e-03
      4.03257599e-03 3.46341240e-03 1.00397412e-02 -9.61997174e-03
      -1.02832578e-02 5.36610419e-03 1.89716592e-02 -6.89193932e-03
      1.42159583e-02 1.53038939e-02 -1.01502510e-02 -4.46393108e-03
      -1.34195611e-02 -2.38644518e-02 -1.29159940e-02 1.97044499e-02
      1.21415639e-02 1.79393124e-02 2.11086236e-02 3.92197864e-03
      7.41787115e-03 -1.79108605e-02 -1.14521282e-02 -1.73937026e-02
      -1.46201812e-02 8.19940120e-03 1.61344465e-02 2.57630683e-02
      -6.82065915e-03 1.97286089e-03 -1.52304759e-02 -2.11011060e-03
      6.66681351e-03 2.09189188e-02 5.04649850e-03 1.31756803e-02
      -1.06490329e-02 -1.77870989e-02 8.47384043e-04 -3.55038326e-03
      5.00624673e-03 -1.01597691e-02 -1.58051634e-03 -9.28332563e-03
      2.20717136e-02 9.52813309e-03 4.72574355e-03 -1.00616021e-02
      -9.27596167e-03 2.65703537e-03 -1.07539529e-02 -1.51494956e-02
      -3.55297583e-03 -3.59911914e-03 -9.46117193e-03 1.89739317e-02
      -3.56973894e-02 -3.41226272e-02 8.81774537e-03 3.14734578e-02
      -1.85105093e-02 7.35956535e-04 6.03449624e-03 1.34496507e-03
      3.31386086e-03 8.71229451e-03 1.55587047e-02 -4.66680620e-04
      4.10944037e-03 -1.12414882e-02 -2.56732367e-02 -9.83091723e-03
      1.24964491e-02 2.74105277e-02 -7.50987558e-03 1.18960429e-03
      1.85499538e-03 2.88786199e-02 -3.51648144e-02 -2.17372105e-02
      -1.04037523e-02 -4.38985089e-03 1.87095522e-03 -1.21565731e-02
      -3.89391817e-02 -9.18024860e-04 7.43180746e-03 -6.27333485e-03
      9.31962952e-03 -1.11746956e-02 -4.87210182e-03 -9.66499967e-04
      9.48203821e-03 1.02782827e-02 7.89062772e-03 7.40671158e-03
      3.56203062e-03 1.37291569e-03 -1.39732603e-02 1.90167949e-02
      -8.51461012e-03 1.37086678e-03 -5.09364624e-03 1.07484171e-02
      1.14756823e-02 -2.71332972e-02 -2.22815052e-02 -1.94524263e-03
      2.07716171e-02 2.99970410e-03 1.38552692e-02 5.87015646e-03
      1.76009629e-02 1.54820131e-02 -1.39864534e-02 -5.96443005e-03
      -1.62862856e-02 -7.55296974e-03 -1.55115183e-02 3.40853296e-02
      1.01525811e-02 -2.84781633e-03 -4.36022226e-03 -1.27296839e-02
      -1.82781499e-02 6.55538868e-03 7.48353591e-03 2.60178908e-03
      -1.10988901e-03 1.62713490e-02 -6.35968708e-03 -9.36002098e-03
      -1.53722903e-02 -2.29313248e-03 1.44111997e-04 6.49748044e-03
      -1.32781565e-02 1.56701710e-02 1.88650452e-02 1.78457536e-02
      2.28730706e-03 -2.41800398e-02 -3.04452013e-02 3.36409956e-02
      4.72091138e-03 -1.75844238e-03 -2.09041983e-02 1.42672984e-02
      -2.61657685e-02 -3.30570601e-02 -1.93196908e-02 7.40291970e-03
      4.95857792e-03 1.91379692e-02 1.36578018e-02 -1.69154890e-02
      4.40560421e-03 1.27252471e-02 5.29043516e-03 -1.17292127e-03
      -1.32005261e-02 -5.55856805e-03 6.69504842e-03 -5.02699567e-03
      -1.70135554e-02 3.32309376e-03 4.40560421e-03 1.66817140e-02
      -1.46970842e-02 -1.56711992e-02 4.41692322e-02 2.82374565e-02
      1.60337221e-02 -1.60640012e-02 -2.07276735e-02 -1.81820188e-02
      -3.23524959e-02 -2.74431743e-02 -8.45487602e-03 2.15554666e-02
      3.00154649e-02 7.89324567e-03 -2.01012520e-03 4.38397797e-03
      -9.82576329e-03 -2.47708037e-02 -1.26936119e-02 5.98454708e-03
      5.64045925e-03 7.66129605e-03 2.62804038e-04 -1.18772592e-02
      -1.10177156e-02 3.02793575e-03 1.30664725e-02 -1.61941219e-02
      -2.42840778e-03 -7.51298061e-03 -9.29426029e-03 2.80159600e-02
      -1.02966707e-02 -4.34509106e-03 -1.45609928e-02 5.04306853e-02
      1.52761275e-02 -4.93710954e-03 5.14542637e-03 6.92983391e-03
      -5.79188671e-03 1.77758595e-03 -4.10059141e-03 -3.27866524e-03
      -2.58900132e-02 -5.10641886e-03 6.71988493e-03 -1.31012062e-02
      3.32787842e-03 1.47344982e-02 -1.49000995e-03 -4.34509106e-03
      1.99134042e-03 -1.34342059e-03 9.19792522e-03 -1.27861695e-02
      -5.46706375e-04 -9.73496062e-04 2.86923675e-03 3.99976410e-03
      -6.15798577e-04 -3.21535207e-02 1.92275352e-03 -4.10838472e-03
      5.54370927e-05 1.26803725e-05 1.08797003e-05 -5.15801192e-04
      8.91386904e-03 6.86833402e-03 -1.68550070e-02 2.54007243e-03
      1.69522334e-02 3.87916481e-03 -3.21557716e-04 8.85379210e-04
      3.22155911e-03 7.08533404e-03 1.85313041e-03 -3.87653499e-03
      -2.90752342e-03 5.28418226e-04 -2.97993247e-04 1.49832558e-04
      5.55222970e-04 6.50780369e-03 2.17016246e-02 -2.69222260e-02
      -3.33495922e-02 2.54007243e-03 4.55931202e-03 2.99661793e-03
      -5.22957835e-03 3.25981039e-03 1.25757515e-05 4.65593906e-03
      2.88625131e-03 -2.68973671e-02 -2.91751279e-03 2.90250741e-02
      -4.36448213e-03 -1.99990477e-02 3.18216253e-03 -2.81836576e-04
      5.78477466e-03 -2.16579735e-02 -2.32667080e-03 1.82442740e-02
      3.11653931e-02 -8.32322706e-03 -3.91735649e-03 2.78397906e-03
      -2.00752215e-03 4.34295740e-03 -3.28517370e-02 -1.84580348e-02
      -2.91751279e-03 -2.91751279e-03 6.13129698e-03 -1.28304334e-02
      6.40023500e-03 -1.34478975e-02 -1.77573096e-02 -1.85786746e-02
      1.77779316e-03 -2.91751279e-03 -2.91751279e-03 2.93745194e-02
      -2.30389386e-02 -1.10874819e-02 -4.59212111e-03 -3.85619304e-03
      -3.42166200e-02 -1.34724388e-02 -6.06367318e-03 1.78669319e-02
      1.90319901e-03 -1.69568770e-02 1.44138550e-02 1.64384469e-02
      7.31049338e-03 4.01717843e-03 1.21439816e-02 -3.01648583e-02
      2.37249583e-02 -1.17676910e-02 7.08206650e-03 -7.22009689e-03
      -1.66275352e-02 -2.25590672e-02 -2.08968315e-02 -1.09264599e-02
      -6.81772456e-03 7.01293815e-03 7.01293815e-03 1.14076072e-02
      3.18092033e-02 1.57560203e-02 1.17490198e-02 -4.61425225e-04
      -9.25785676e-03 -2.42056381e-02 -9.72540397e-03 7.01293815e-03
      -3.56293209e-02 2.76723388e-03 1.40738254e-02 2.26602517e-02
      1.69121865e-02 1.93658285e-02 -1.65369380e-02 2.79495114e-04
      -2.37136111e-02 -1.55921988e-02 -9.52415727e-03 -1.08439485e-02
      2.37310864e-03 1.89934429e-02 1.07259667e-02 -5.34448354e-03
      -2.93582138e-02 -1.36545943e-02 5.66362077e-03 1.26158809e-02
      1.14621958e-02 3.26824188e-02 1.21485023e-02 5.05080493e-03
      -8.20441730e-03 -1.88471097e-02 -6.09000819e-03 3.39116389e-03
      -5.09253610e-03 -1.44343087e-02 4.77695512e-03 8.45251232e-03
      9.58273746e-03 8.87342636e-03 -2.14521457e-02 4.43400349e-03
      -3.45054083e-03 -1.69797931e-02 -1.26933195e-02 -1.67178754e-02
      2.36396249e-02 3.66355735e-03 -2.49402300e-02 -1.04967896e-02
      2.46578176e-02 -7.67098879e-03 -7.30044732e-04 -6.25523599e-03
      -1.92226116e-02 1.15398848e-02 2.83680344e-03 -1.87106151e-02
      8.93334765e-03 1.38238044e-02 2.53085443e-03 -1.33325700e-02
      -1.32736843e-02 -2.87433416e-02 1.26715703e-02 1.25566665e-02
      2.52860552e-03 -8.89397413e-03 2.67032906e-02 1.56940091e-02
      1.25171673e-02 2.25105105e-04 -2.91627422e-02 -1.03532784e-02
      8.56917724e-03 -5.74753527e-03 4.03658347e-03 2.01566406e-02
      1.22559974e-02 2.12531928e-02 -1.06905820e-02 -9.97862127e-03
      -3.12146638e-03 1.75193101e-02 4.30123881e-03 6.25941437e-03
      1.23221371e-02 -2.22020177e-03 1.38390511e-02 -2.37426311e-02
      -1.24120992e-02 -2.58334670e-02 3.33069265e-02 5.44652808e-03
      1.12808878e-02 -5.91164920e-03 1.27428481e-02 8.68658535e-03
      -9.47646145e-03 -1.60219856e-02 -1.21553661e-02 2.20242552e-02
      7.73885462e-04 -2.56281113e-03 4.76163961e-02 -8.82820878e-03
      -8.93058255e-04 -1.97423641e-02 -8.12044926e-03 -4.37922999e-02
      5.60035976e-03 2.74614580e-02 1.06214350e-02 7.55897677e-03
      -1.40484832e-02 1.77980289e-02 6.32479973e-03 -2.21710540e-02
      -1.08722979e-02 5.89303300e-03 -5.30685438e-03 -1.63073593e-04
      -2.31848508e-02 -7.24189496e-03 2.69055180e-02 3.01818065e-02
      -1.34727415e-02 -1.02147460e-02 -1.42836133e-02 -5.52116893e-03
      -2.08562948e-02 -2.00924017e-02 1.15014170e-03 2.59715295e-03
      1.07415486e-03 -4.48734872e-03 -2.20237169e-02 1.31764067e-02
      1.60555989e-02 3.65309082e-02 9.54411400e-04 1.76661427e-03
      1.29708427e-03 1.19391559e-02 -5.21698128e-03 7.12027494e-03
      1.51798557e-02 -8.72499682e-03 6.60415133e-03 6.49752980e-03
      -9.70595796e-03 2.03746539e-02 1.89288855e-02 -1.02703730e-02
      -6.72677718e-03 -8.99461191e-03 -2.67159007e-03 -3.67829874e-02
      -1.97114442e-02 -1.70912745e-03 1.40936673e-02 1.20715587e-03
      -5.19883120e-04 -1.33977300e-02 2.44053528e-02 1.77763309e-02
      -1.65860057e-02 -1.88280232e-02 -3.02906148e-03 -3.49724642e-03
      2.09889263e-02 -4.44051856e-03 -1.44516369e-02 8.04113876e-03
      1.67902261e-02 -1.57714020e-02 3.19053372e-03 -2.12611146e-02
      -3.90877314e-02 -1.71273260e-03 -2.31944723e-03 1.13416533e-03
      4.91143651e-02 3.88712585e-02 2.03018971e-02 8.25787615e-03
      4.59024403e-03 -2.73981411e-03 -1.73406396e-02 1.47038279e-03
      9.15757846e-03 3.97684425e-02 2.01756302e-02 -6.08426146e-03
      -1.72704775e-02 1.22168018e-02 -8.72052833e-03 -1.16267409e-02
      -3.24905999e-02 -7.25400634e-03 -8.43699742e-03 -5.55709423e-03
      -1.06848544e-02 -4.59540985e-04 -4.51542847e-02 -6.29458353e-02
      -8.36503040e-03 2.32047774e-03 8.99173785e-03 6.60615861e-02
      3.60158943e-02 1.49408532e-02 -4.47911546e-02 1.81205124e-02
      1.61899906e-02 -1.22976108e-02 -4.41977903e-02 6.59982499e-04
      2.44524311e-02 2.02220920e-02 1.36826909e-03 2.60748621e-02
      2.49605104e-02 2.30118795e-03 1.51653429e-02 -1.65102948e-02
      -1.39070842e-02 -2.05353945e-02 -1.12735573e-02 -1.43845445e-02
      6.07022317e-03 3.33466567e-02 1.04660671e-02 1.45349307e-02
      -3.85850924e-03 -2.15573590e-02 -1.15815923e-02 1.06804697e-02
      -6.43352396e-04 2.47599855e-02 -7.83826783e-03 -7.59919686e-03
      1.22954871e-03 -3.12104151e-02 -7.86188524e-03 1.17290309e-02
      3.85550521e-02 7.07889348e-03 1.42854135e-02 4.59811138e-03
      -2.40349974e-02 -3.89031619e-02 1.19221220e-02 -1.53706165e-03
      5.93697131e-02 1.51679590e-02 -5.08786440e-02 1.22358520e-02
      2.53801863e-03 -7.77190365e-03 -1.49009190e-03 -5.35801426e-03
      1.27782235e-02 -1.00456523e-02 -1.71210915e-02 -1.18637010e-02
      3.87613778e-03 -1.22317513e-02 9.94381262e-04 4.27146815e-03
      5.94467996e-03 4.34139278e-03 -9.30397678e-03 2.49527558e-03
      -5.33063943e-03 -1.21676205e-02 -2.96836882e-03 -6.30997587e-03
      -7.43724359e-03 -1.17241619e-02 1.61589514e-02 -1.07974941e-02
      5.19522652e-03 -5.10939257e-03 -6.66280743e-03 -1.52079575e-02
      -3.65890958e-03 7.53272185e-03 3.42331291e-03 4.34139278e-03
      7.80042401e-03 1.11430008e-02 -1.31833274e-02 -2.37445384e-02
      -2.26033269e-03 1.71652564e-03 1.77048054e-03 2.25606002e-02
      5.01629943e-03 -8.63452815e-03 3.20691383e-03 -1.14801351e-03
      -1.16906071e-03 1.09190284e-03 -6.67978835e-04 -2.12220079e-03
      2.14409782e-03 2.14409782e-03 -1.73768904e-02 -3.88386799e-03
      -4.46356200e-02 1.88684661e-03 -3.63515783e-03 6.25736488e-04
      4.98789735e-03 4.76084091e-03 2.14409782e-03 -3.79001233e-03
      4.20400966e-03 -2.02251878e-03 -2.98012607e-03 -7.34072179e-04
      6.44418271e-03 3.07550584e-03 2.14409782e-03 2.14409782e-03
      4.58276737e-03 -2.28227768e-03 -2.93508754e-03 -8.99678213e-04
      -2.99922866e-03 -8.59887514e-04 4.99117002e-03 1.97118279e-02
      -2.12323689e-03 -4.88116499e-03 1.55912340e-03 2.79931678e-03
      6.36191713e-03 -3.05453650e-05 -1.61074416e-03 -2.20818608e-03
      2.34292517e-03 1.44713158e-02 6.48434879e-03 2.79931678e-03
      2.79931678e-03 2.79931678e-03 -2.74184044e-03 9.00345622e-04
      7.36809243e-03 1.84708759e-02 1.85695440e-02 4.67737060e-04
      -1.75200272e-02 -2.22365875e-02 -9.53423511e-03 -1.13419332e-02
      -5.73020708e-03 7.50868814e-03 2.24942714e-02 4.78485934e-02
      9.39389877e-03 -3.16892564e-02 -5.59256971e-02 -5.19468710e-02
      2.50080898e-02 -5.43748075e-03 -5.93286124e-04 5.93397534e-04
      6.16895827e-03 -2.79345177e-03 -1.45803923e-02 1.02497544e-02
      1.07338801e-02 1.09704267e-02 1.30685791e-02 9.02336556e-03
      1.33353258e-02 6.86288066e-03 -1.01535423e-02 -1.40224826e-02
      -1.41254012e-02 1.07338801e-02 -5.79287484e-03 -1.34892035e-02
      4.34077671e-03 1.27899889e-02 1.96528398e-02 3.21060797e-04
      -1.95562169e-02 -4.17107046e-02 -2.64429282e-02 1.07338801e-02
      -2.78150961e-02 2.93604331e-03 4.71863477e-03 4.00134968e-03
      -3.72365536e-03 -1.41705917e-02 -3.77848148e-02 -6.01822650e-03
      -2.92837387e-04 2.26945300e-02 3.19678592e-03 1.81857515e-02
      5.71365701e-03 -1.85416511e-03 3.16964742e-03 -2.61151302e-03
      -6.51247159e-04 -2.92837387e-04 -7.46201864e-03 -1.94219910e-02
      -5.20633161e-03 -3.89976287e-03 8.33575986e-03 1.15954829e-02
      5.86601580e-03 4.14628163e-02 -1.33160467e-03 -1.34148868e-02
      -2.76224897e-03 -3.39278299e-03 -1.48683414e-03 -6.82425278e-04
      -7.49824161e-04 -9.36024170e-03 -2.40370128e-02 -8.95692874e-03
      -1.15810120e-02 -5.48841059e-03 -6.18148781e-03 -3.76252574e-03
      7.85321987e-04 1.33536814e-03 -1.81052345e-03 -9.83381085e-03
      -7.96746276e-03 -1.45909926e-02 -5.97226666e-03 -1.02825221e-02
      4.14132420e-03 2.57200636e-02 2.99221724e-02 9.92193818e-03
      -2.05040653e-03 -7.96746276e-03 3.72306071e-02 4.51629311e-02
      1.21578556e-02 2.62423488e-03 1.74021125e-02 3.36464569e-02
      1.06956940e-02 -7.96746276e-03 -1.99042857e-02 -2.65508774e-03
      3.63360345e-03 -3.30758537e-03 -1.38321228e-03 3.38404602e-03
      3.17979278e-03 -4.25332086e-03 -1.75113641e-02 -2.25248691e-02
      1.00468630e-02 2.58166734e-02 1.04968750e-03 -2.39836378e-03
      -1.65490212e-03 3.47748562e-03 -7.31225358e-03 -2.75074858e-02
      1.21407537e-02 1.27528263e-02 4.23230343e-02 8.99965037e-03
      4.41435240e-02 9.97379981e-03 4.80485382e-03 -8.08617938e-03
      5.98764326e-03 1.97075563e-03 1.67333744e-02 1.78386588e-02
      -2.36991420e-03 2.04652641e-02 1.48480097e-02 9.95336846e-03
      1.40477181e-03 -3.04704849e-02 -5.76534010e-02 -2.68128561e-03
      2.96415854e-02 -1.32935995e-03 3.45979147e-02 -2.92161549e-03
      -2.06320975e-02 -2.17176322e-02 -5.26759811e-02 -5.16642630e-02
      -8.42458103e-03 1.52492290e-02 -1.86687056e-02 1.17384065e-02
      1.74596766e-03 -6.73544127e-03 -2.30363850e-02 -8.15555602e-02
      2.45684129e-03 -5.70895383e-03 -4.10246802e-03 1.29824504e-02
      2.73182127e-03 -1.36534986e-03 2.95324828e-02 5.33572100e-02
      5.69671905e-03 5.68124978e-03 -7.80521007e-03 -3.42097096e-02
      2.23986171e-02 1.39504466e-02 1.71861928e-02 5.33239916e-03
      2.79849675e-02 5.68124978e-03 -5.01206927e-02 -2.01017736e-03
      -6.33551320e-03 -7.31706433e-03 5.68124978e-03 -2.91712140e-03
      -1.70549995e-03 6.72372617e-03 -5.88896610e-02 -1.64859220e-02
      -9.42732301e-03 -2.03797091e-02 7.63518550e-03 -4.59392415e-03
      2.15402315e-03 4.26055957e-03 5.53776603e-03 -3.16350944e-02
      -3.90273659e-03 -4.39469740e-02 -7.52865057e-03 -8.00801849e-04
      3.94064263e-02 2.53107417e-02 2.36330554e-02 -8.13496485e-03
      -7.60370109e-04 -3.64584848e-02 -4.77975979e-02 -2.17253137e-02
      -2.97925789e-02 2.19068211e-02 4.63245437e-02 2.08140165e-02
      -5.84260887e-03 -9.40889399e-03 -1.63183026e-02 -1.24245081e-02
      -1.15182865e-02 1.51126564e-03 1.68384016e-02 1.65840033e-02
      9.31610912e-03 -1.11916810e-02 -4.54986803e-02 -5.98662533e-02
      -1.99043117e-02 -1.64574012e-02 -9.76017769e-03 2.08512526e-02
      2.08512526e-02 -3.13980319e-03 -9.98889562e-03 4.58074675e-04
      -2.64579318e-02 -3.85026224e-02 -2.19969079e-02 -3.87629494e-02
      -7.58253271e-03 1.67449042e-02 -1.53495623e-02 -2.04654131e-02
      -4.40227203e-02 6.12400705e-03 1.62953455e-02 2.83045825e-02
      -4.03972194e-02 -1.12782642e-02 8.20710231e-03 5.55215441e-02
      2.61917543e-02 5.31172473e-03 -5.66453412e-02 -2.45176870e-02
      -2.00668518e-02 -2.55166981e-02 -1.12782642e-02 -6.57465542e-03
      -1.48666361e-02 2.25561392e-03 -5.10086631e-03 1.66651253e-02
      2.18109749e-02 3.64900604e-02 -1.81648806e-02 -1.17554320e-02
      1.42263705e-02 5.88009469e-02 6.11806177e-02 3.69770825e-02
      9.34460573e-03 2.64170375e-02 -6.38617808e-03 -2.13553682e-02
      -1.33738630e-02 3.47958226e-03 4.20875847e-02 2.70278621e-02
      2.41480768e-02 -1.82601493e-02 9.13213752e-03 -4.10585571e-03
      1.52746551e-02 -4.74043330e-03 2.20719371e-02 8.37556436e-05
      -2.50943769e-02 -1.57686863e-02 1.42014017e-02 4.06342857e-02
      -1.23589905e-02 -3.15257274e-02 -2.95708142e-02 6.91371970e-03
      1.50858639e-02 6.67971149e-02 2.30095293e-02 -4.43613203e-03
      2.07660832e-02 -1.03660524e-02 3.63384403e-04 -2.43577897e-03
      -5.75142493e-03 -4.70141741e-03 -1.88213040e-03 -3.96758914e-02
      -7.96046481e-03 -5.39854635e-03 1.82374578e-03 -7.76065467e-03
      1.86115094e-02 -1.30621698e-02 -1.24052109e-03 -7.85200950e-03
      -1.00571448e-02 -8.41171294e-03 -2.19038269e-03 2.63149720e-02
      -1.83759946e-02 2.90562375e-03 6.87802257e-03 4.33862582e-03
      -1.01285335e-02 -1.66103859e-02 -7.51689775e-03 -4.12650080e-03
      3.76235042e-03 -4.17373981e-03 2.90562375e-03 -8.88337381e-03
      2.29994729e-02 3.17684188e-03 -9.19787679e-03 -6.46942528e-03
      5.62837813e-04 2.90554632e-02 -1.36790602e-02 2.90562375e-03
      5.24024433e-03 6.86679792e-04 -7.58621050e-03 -9.84891970e-03
      -1.69348938e-03 -3.21774564e-06 1.02157043e-02 -1.92605145e-02
      6.21764688e-03 -1.82398118e-03 3.78011144e-03 -7.93814252e-04
      -2.57067685e-03 -9.22368781e-05 2.48970184e-03 1.71913567e-03
      6.21764688e-03 6.21764688e-03 -3.37561872e-03 6.69414876e-04
      2.23740535e-05 -2.81765970e-05 -9.57344892e-04 1.83420707e-04
      1.02830902e-02 -2.59649791e-02 6.21764688e-03 -8.41096044e-03
      3.09763825e-04 -1.94773322e-03 -1.36321445e-03 -1.90893275e-06
      1.16362215e-04 -3.82861611e-03 6.21764688e-03 6.21764688e-03
      -1.41493268e-02 -2.06803670e-05 -8.88840368e-05 -3.11828990e-06
      2.19971866e-06 1.55443547e-03 -1.81285752e-04 3.59533733e-04
      3.59533733e-04 -1.61189260e-03 -1.70186526e-04 -6.95680792e-05
      -6.15129175e-05 -9.83028393e-03 -7.84040336e-03 -5.60708670e-03
      3.59533733e-04 3.59533733e-04 -1.64782582e-03 -3.08992714e-03
      -8.49758741e-03 -9.76647343e-03 2.96484577e-05 -2.63631984e-04
      1.11943344e-03 3.59533733e-04 3.59533733e-04 -1.01103773e-03
      3.60042977e-05 -8.84998735e-05 -1.24006823e-04 -7.66462693e-03
      -1.19042723e-02 4.30963654e-03 3.59533733e-04 3.59533733e-04
      1.93972513e-02 -1.33643436e-04 -1.53691135e-03 -1.45934499e-03
      -3.37849632e-02 -1.44481910e-02 1.86104570e-02 2.62182597e-02
      2.62182597e-02 1.67275239e-02 -3.59686324e-03 -4.20029163e-02
      -5.32680154e-02 -3.63666303e-02 -4.95860912e-02 -1.21372575e-02
      7.14174658e-03 2.18334645e-02 -1.07277250e-04 -1.96979940e-03
      -4.22808230e-02 -9.33485627e-02 -7.16407131e-03 -6.43414853e-04
      3.92167177e-03 2.62182597e-02 2.62182597e-02 2.43280865e-02
      -1.68664992e-04 -9.15387936e-04 2.49225966e-04 -6.24317690e-05
      1.07771019e-03 -2.02169679e-02 -8.27718340e-03 9.13444348e-03
      -6.33132935e-04 -1.04042736e-03 -5.07971308e-05 -3.19382350e-04
      -4.05527800e-02 -7.37744123e-02 -1.18456539e-02 9.99771152e-03
      9.22851637e-03 -1.89954400e-04 -1.50692079e-03 -1.44230900e-02
      -5.08943684e-02 -2.71556526e-02 -3.90257947e-02 1.37512302e-02
      3.11490544e-03 -4.07998823e-03 3.48736030e-05 -6.52422779e-04
      -2.55098473e-03 -4.58931327e-02 1.32493256e-02 1.65894851e-02
      -3.25227535e-04 7.43776700e-03 -2.89910659e-03 -2.14726824e-04
      -1.20865391e-03 5.89183765e-04 2.59233551e-04 8.75431001e-02
      6.78645074e-02 3.24161053e-02 1.63547369e-03 1.73324160e-02
      1.48951716e-04 3.38370242e-04 1.98970605e-02 7.22489506e-02
      -2.64198203e-02 -2.13239007e-02 1.53280646e-02 3.71387741e-03
      -1.45140453e-03 2.47591088e-04 1.81315676e-03 -5.39202103e-03
      -4.37369049e-02 -2.69657671e-02 -1.62576251e-02 7.65092485e-03
      6.05694484e-03 -2.02217465e-03 -8.98993481e-03 -6.32578433e-02
      -2.54281349e-02 -4.20722067e-02 -3.11767822e-03 6.12241067e-02
      2.01555751e-02 -3.88879259e-03 1.03501426e-02 1.90916692e-03
      -2.00166724e-05 3.67662460e-02 -1.98666453e-02 3.69625837e-02
      2.23067123e-02 1.40948463e-02 3.26162856e-03 1.08674532e-02
      3.47035751e-03 6.33148104e-03 2.39135921e-02 7.32181072e-02
      -3.05754486e-02 -8.03789031e-03 3.45034176e-03 -1.75023428e-03
      2.69801151e-02 -1.15896324e-02 -3.80539522e-02 -1.38969216e-02
      -3.02842725e-02 -5.94499297e-02 -3.27863619e-02 -9.59118828e-03
      -9.63319093e-03 2.69801151e-02 -1.96586233e-02 -3.53266373e-02
      -1.48127219e-02 -5.70370890e-02 6.43355213e-03 3.08663654e-03
      -4.75957931e-04 4.61425772e-03 2.75511108e-02 1.44016813e-03
      -2.90473667e-03 2.05375464e-03 1.04426499e-02 6.23069145e-03
      3.07404785e-03 -9.23707336e-03 1.47632118e-02 2.69801151e-02
      4.35219030e-04 3.73767340e-03 -5.46007976e-03 3.88944149e-03
      -3.78184877e-02 -1.35399364e-02 -1.84430592e-02 -4.49209660e-03
      6.09648228e-03 1.28367860e-02 -1.69195817e-03 -4.57637594e-04
      -3.66448276e-02 -1.85562996e-03 -3.82291293e-03 -3.95936705e-03
      4.56022285e-03 -4.78884950e-03 1.16472710e-02 1.18715095e-03
      8.12475290e-03 -7.07186945e-03 -4.09363676e-03 7.33112684e-03
      8.61620298e-04 7.17147067e-03 1.40113393e-02 6.44650077e-03
      1.13342069e-02 2.27297237e-03 6.09648228e-03 6.09648228e-03
      -1.49159757e-02 9.72649141e-04 7.58175133e-03 -5.57393208e-03
      4.85384138e-03 -5.64164203e-03 1.61663759e-02 6.09648228e-03
      3.37514072e-03 -3.01284622e-03 2.30961270e-03 2.50618462e-03
      -2.91987875e-04 1.28179870e-03 2.68910197e-03 1.11909013e-03
      -1.49725063e-03 -4.36814614e-02 -2.24701222e-02 -1.11723617e-02
      -2.95605157e-02 -8.35573580e-03 2.27626748e-02 5.85734006e-03
      2.64260210e-02 4.70154509e-02 1.40839899e-02 -7.23260595e-03
      9.56303091e-04 1.76249584e-03 -2.30762851e-03 3.65884225e-05
      9.54060466e-04 1.50901033e-03 -1.45597421e-02 -3.29973036e-03
      -9.86733288e-03 -5.43181458e-03 -3.50233428e-02 -8.35573580e-03
      -7.22298305e-03 -1.01775890e-02 1.23241590e-02 2.24831626e-02
      -2.79383566e-02 -1.10787842e-02 -7.04937149e-03 -3.46393287e-02
      -1.00727985e-02 1.96607951e-02 -7.57035008e-03 1.16976947e-02
      5.84951751e-02 1.96392871e-02 1.46969175e-02 1.72693226e-02
      -1.21223722e-02 -4.03271578e-02 2.86586285e-02 -1.39285135e-03
      2.16263570e-02 5.41562624e-02 4.83505148e-03 -2.59471987e-03
      1.36884605e-03 -3.68443131e-02 -1.00727985e-02 -2.45091040e-03
      -1.59063172e-02 -9.64914355e-03 2.98964716e-02 2.02744231e-02
      1.12506971e-02 8.06102529e-03 -2.60264426e-02 -3.14394832e-02
      -1.16377627e-03 -7.08014751e-03 -1.04844132e-02 2.70188823e-02
      4.72330078e-02 4.52242866e-02 -9.89765581e-03 -1.32689560e-02
      -2.09602788e-02 1.82980485e-02 9.23236180e-03 5.34482040e-02
      5.17626777e-02 4.42137429e-03 2.49139313e-02 -5.80926836e-02
      1.20108190e-04 4.89766384e-03 2.92910216e-03 -5.34267761e-02
      2.30301055e-03 -2.80028190e-02 1.79042183e-02 2.88436785e-02
      -3.51773296e-03 -1.58438738e-02 -1.85593367e-02 8.00972804e-03
      -6.51257718e-03 5.88696869e-03 1.78812966e-02 8.00699741e-03
      3.83723481e-03 -5.52616604e-02 -9.09422059e-03 -2.41255369e-02
      8.12984817e-03 -4.30327281e-02 -5.68779942e-04 1.02294572e-02
      -2.02116743e-03 -5.71220554e-03 -3.06174927e-03 2.05154810e-02
      2.07947660e-03 -2.52317674e-02 1.76405460e-02 1.13086775e-02
      1.69266644e-03 -3.02536367e-03 -8.53826571e-03 -4.86146798e-03
      8.45945347e-03 -1.68041170e-05 -1.41699780e-02 -1.79375696e-03
      -2.03356706e-03 -3.17248539e-03 -2.11406383e-03 -7.26029882e-03
      -1.06662298e-02 2.82889772e-02 -1.68041170e-05 -3.33747901e-02
      -4.59378678e-03 6.23281719e-03 5.78798074e-03 -2.43932614e-03
      -1.17140030e-02 -2.34683920e-02 2.52844393e-03 -1.68041170e-05
      2.71387078e-04 8.07708781e-03 7.49133201e-03 2.77158758e-03
      -4.23780642e-04 -2.11802917e-03 3.41675081e-03 -6.07035682e-03
      7.86315708e-04 -6.51908899e-03 -2.47474038e-03 -1.41153333e-03
      -4.37845767e-04 0. -7.26916842e-05 1.55590847e-03 7.86315708e-04
      7.86315708e-04 -1.44248568e-02 -9.09679657e-05 -7.88015823e-05
      -1.04762580e-06 -2.05959688e-04 -1.40951725e-03 -6.08111382e-04
      8.24279524e-03 7.86315708e-04 2.00798758e-03 1.81445968e-03
      1.90427783e-03 6.41387829e-04 3.97657868e-06 -5.26333570e-05
      1.65001326e-03 3.88117391e-03 7.86315708e-04 -7.44618336e-03
      -9.98961841e-05 2.67431042e-05 2.82818496e-06 6.75023402e-05
      -8.89223185e-04 3.52030993e-03 6.05314854e-04 6.05314854e-04
      -2.46354518e-03 3.22225213e-04 -1.55166708e-04 -2.77011510e-04
      -4.18391405e-03 1.13921547e-02 -8.24241899e-03 6.05314854e-04
      6.05314854e-04 1.97923295e-02 2.76511558e-03 -2.37066392e-03
      -4.20964928e-03 -1.06504594e-05 -5.97555947e-04 -1.18826551e-03
      6.05314854e-04 6.05314854e-04 -6.47241715e-03 -4.13794187e-05
      -2.43375413e-04 -9.05299385e-05 -1.21559575e-03 2.13750415e-02
      -2.08505187e-02 6.05314854e-04 6.05314854e-04 -5.25516504e-03
      -2.01934250e-03 -1.59751216e-03 -2.61151558e-03 -9.59746540e-03
      4.65145335e-02 -4.58706431e-02 9.59180295e-03 9.59180295e-03
      3.15714739e-02 3.93003132e-03 -3.11563443e-03 -4.62988252e-03
      -3.35832871e-03 -2.20245100e-03 -2.86588166e-02 -2.88362857e-02
      -1.80619527e-02 -7.58704904e-04 -2.71579437e-03 -5.48087010e-05
      -2.76384503e-03 -2.80842977e-03 7.58141503e-02 -5.80461882e-02
      9.59180295e-03 9.59180295e-03 -1.10075790e-02 -4.72024642e-03
      -2.37721717e-03 -4.83480981e-03 -1.81742699e-03 6.79143844e-03
      4.53657145e-03 -1.71719603e-02 -3.64511833e-02 1.93382183e-03
      -1.74373412e-03 -3.75014730e-04 -1.83824264e-03 2.14780774e-03
      3.86566878e-03 1.57538597e-02 1.36564777e-03 4.56983689e-03
      5.39960689e-04 -3.20095169e-05 2.59594119e-04 -7.62255979e-04
      6.06734026e-03 -9.31741949e-03 3.36972550e-02 -4.86852340e-02
      2.30896659e-02 -4.80719929e-04 -5.95659541e-04 -6.53119897e-03
      -1.53230755e-02 -4.05025296e-03 -6.40249811e-03 1.45014636e-02
      -1.03305897e-03 1.81634107e-03 4.68262611e-03 -1.83097029e-03
      -1.82000175e-03 -4.31685569e-03 2.07070424e-03 1.16149604e-04
      2.07070424e-03 9.84878046e-04 2.07070424e-03 2.15101731e-03
      -4.78216726e-03 -1.87023804e-02 2.07070424e-03 1.87937729e-02
      -3.25589161e-03 1.21736247e-02 -2.26499718e-02 1.29286246e-02
      -3.63537599e-03 -3.76816303e-03 -1.35330353e-02 -2.85019074e-03
      7.48259341e-03 6.61539845e-04 1.88512984e-03 -9.97235416e-04
      8.51097237e-03 -4.66266274e-03 -1.34588405e-03 -8.71915650e-03
      7.45094847e-03 6.94456184e-03 -1.35138603e-02 1.64999645e-02
      -4.26913649e-02 6.94456184e-03 -1.70095470e-02 -1.44105060e-02
      -9.79384687e-03 6.94456184e-03 1.67573169e-02 -1.05135208e-02
      -1.83210301e-03 -1.16648956e-03 6.94456184e-03 -1.92882959e-02
      -5.67233982e-03 -8.27048067e-03 -9.88091622e-03 1.30194537e-02
      3.42320371e-03 -8.03423347e-04 6.32841373e-03 9.41738579e-03
      -4.50258097e-03 1.92850397e-03 -4.05484531e-03 -5.00286976e-03
      1.37450350e-02 9.23452247e-03 -5.32234553e-03 4.85368492e-03
      1.03244940e-02 1.88758291e-04 1.33614810e-02 -4.57499735e-03
      -1.16446335e-03 1.81146339e-02 1.46530727e-02 -2.61328425e-02
      5.52473217e-03 7.54467794e-04 -1.26218311e-02 -7.28192832e-03
      -1.24897379e-02 -1.16446335e-03 -6.20250765e-04 5.69373518e-02
      -5.78134507e-02 -1.97500978e-02 1.27770184e-02 3.60541116e-03
      1.12158142e-03 -1.16446335e-03 -1.16446335e-03 -4.60077589e-03
      6.46920688e-03 -7.01234560e-04 1.41181273e-03 4.03419882e-03
      3.49373952e-03 1.00142332e-02 1.28528234e-04 -1.38740912e-02
      -7.20590528e-04 -9.63831134e-03 2.85848812e-03 2.55124853e-03
      1.17781956e-03 4.10975982e-03 1.10552192e-03 5.77301253e-03
      -7.20590528e-04 5.30079519e-03 2.65222508e-02 -2.87026353e-02
      -1.60636790e-02 -7.20590528e-04 1.10591492e-02 8.20059422e-03
      -1.54392347e-02 -2.86705862e-03 3.72235314e-03 -6.36431202e-03
      4.84398333e-03 -2.41818163e-03 -7.20590528e-04 1.76060852e-02
      1.11694345e-02 -1.77562085e-03 -1.75819197e-03 6.25160197e-03
      -2.54469924e-03 6.43373933e-04 -5.16158238e-04 -4.19912947e-04
      1.89204421e-03 1.44412275e-03 2.03888211e-03 -1.21086594e-02
      2.67519359e-03 9.80175682e-04 -1.59954897e-03 -1.39008658e-02
      8.56397499e-04 9.97736305e-03 -1.71488104e-03 8.56397499e-04
      8.56397499e-04 -2.99333804e-03 8.72492616e-04 3.57657392e-03
      -2.13168305e-03 -1.22642017e-03 3.65635776e-03 6.85178395e-03
      -4.89113481e-05 -7.58250244e-03 -1.00641204e-02 8.63353629e-03
      2.37468514e-03 -7.62230391e-03 -1.13201968e-03 -7.83396605e-03
      9.24858381e-04 2.57611065e-03 8.56367289e-04 5.94173034e-04
      1.34364076e-04 1.78612443e-03 -8.31613410e-03 1.23297490e-04
      3.53659131e-03 -1.60823949e-02 1.23297490e-04 1.23297490e-04
      1.23297490e-04 -2.85226852e-03 3.01836198e-03 -1.40688103e-02
      8.69685598e-03 -5.72352437e-04 1.23294201e-04 1.10008637e-03
      1.23297490e-04 -6.55386481e-04 1.80504855e-03 2.37656321e-04
      -3.67861311e-03 4.53565415e-04 -3.75262694e-03 -4.27781837e-03
      7.36265257e-03 4.67754435e-03 1.23297490e-04 -3.25073581e-03
      -3.92897474e-03 6.48216577e-04 1.78039763e-02 -8.50630226e-04
      -6.98315818e-03 1.28241973e-02 1.23297490e-04 9.90445446e-03
      -5.87123586e-03 4.02193796e-03 -7.16324477e-03 8.01814161e-03
      7.30729057e-03 -1.30413182e-03 -6.38152985e-03 2.10720040e-02
      -3.58258514e-03 -7.70754600e-03 1.96932582e-03 1.81448204e-03
      -1.02169840e-02 5.33010205e-03 -3.16964835e-02 1.67222898e-02
      8.60346016e-03 6.87952805e-03 -4.98739490e-03 5.90560539e-03
      5.43875685e-05 4.59133368e-03 -1.67766269e-02 -7.06347870e-03
      7.91571662e-03 2.49144202e-03 3.88355157e-03 5.62280416e-04
      1.00228023e-02 3.71245638e-04 -1.63004100e-02 -2.46459991e-02
      -1.30413182e-03 -1.30413182e-03 -7.92086590e-04 -4.08355612e-03
      -1.54429057e-03 -7.32394401e-03 2.07004678e-02 4.38736938e-03
      -2.25328431e-02 -7.75178894e-03 -2.23124726e-03 -2.46981631e-06
      -2.71975202e-03 -4.96509857e-03 -1.26119992e-02 1.07262668e-03
      6.29998569e-04 -1.30306650e-02 -1.13957748e-02 6.30061375e-03
      6.65309886e-03 -1.20408926e-02 -1.08985268e-02 2.40344312e-02
      2.07208004e-03 1.79803406e-03 -3.52941528e-02 1.89237809e-03
      -8.05747323e-03 -6.02444587e-03 -7.04871956e-03 -5.40440250e-03
      1.84456278e-02 6.12789579e-03 6.29998569e-04 8.83514702e-04
      -1.13840587e-02 2.69356789e-03 -4.27804305e-04 -8.76072882e-05
      -1.79882278e-04 -1.83929209e-04 5.11970837e-03 -2.89951451e-03
      6.85622916e-03 -2.12663994e-03 1.77517498e-03 1.31873821e-03
      9.42922452e-06 7.85543307e-06 -2.27305733e-04 6.42306544e-03
      -2.89951451e-03 6.91870507e-03 -2.90288066e-04 -3.22626584e-05
      6.73881868e-06 -3.05290974e-04 1.26777624e-04 2.73797661e-03
      9.67830326e-03 -2.89951451e-03 -1.79785886e-03 -5.22099202e-03
      6.77938166e-04 1.56874099e-04 5.17274293e-06 7.89136993e-06
      1.62204116e-04 3.07278964e-03 -2.89951451e-03 -2.91772758e-05
      -3.05855443e-04 -3.87181753e-05 7.23357800e-07 -2.67181196e-04
      -1.91881685e-04 -2.97802006e-04 1.12490635e-02 1.87495979e-03
      2.39472394e-03 -6.42205705e-04 -2.90948810e-04 -2.28053585e-04
      -1.76905771e-03 2.81468197e-03 -8.88259243e-03 -3.48071731e-03
      1.87495979e-03 -4.36926726e-03 -9.35955346e-03 -3.48127750e-03
      -1.21938472e-03 -4.05744591e-04 -2.73610640e-04 1.66598358e-04
      8.82462133e-03 1.87495979e-03 7.24865822e-03 1.49655199e-04
      -6.25741319e-04 -5.83974703e-04 -2.24727509e-03 -4.12011473e-03
      -9.26072896e-03 -1.52558126e-02 1.87495979e-03 -1.17457146e-02
      -1.24572720e-02 -6.75304839e-03 -3.62059358e-03 -4.02522832e-03
      2.91918367e-02 -3.75143103e-02 8.32645688e-03 8.32645688e-03
      3.07286438e-03 -2.50292625e-02 -8.45466182e-03 -2.60757026e-03
      -3.70351569e-04 2.79475120e-03 1.53181248e-03 -9.10422823e-04
      -2.97721550e-02 -3.20441504e-05 -7.42726785e-04 1.59662901e-04
      -3.97164054e-04 -6.15411345e-03 -1.54013867e-02 -2.85519566e-02
      5.66383963e-03 8.32645688e-03 9.52911191e-03 -3.92241850e-02
      -1.88205726e-02 -7.68312346e-03 -1.53955200e-03 7.23084202e-04
      2.77068233e-03 1.37163857e-02 -5.22197485e-02 2.92778041e-05
      -1.92829594e-03 2.90900964e-04 -1.25802041e-03 -4.12543956e-03
      -1.99729321e-03 4.89330618e-03 1.01021156e-02 -1.94145215e-03
      6.54808432e-03 -2.41017574e-03 -1.42633577e-03 -5.61052142e-03
      1.85294927e-03 -4.96575842e-03 1.89437848e-02 -6.58912258e-03
      8.70916806e-03 8.11165199e-03 -4.61121136e-03 -7.35986559e-03
      1.85294927e-03 4.76392871e-03 -4.22469014e-03 -7.93137029e-03
      1.83517933e-02 -2.62089409e-02 2.16472475e-03 -1.97320152e-03
      -6.78927172e-04 4.55945003e-04 1.85294927e-03 1.52359076e-03
      -3.51645909e-02 3.12852487e-02 1.85294927e-03 -4.06957697e-03
      -1.36532849e-02 -1.11286538e-02 1.85294927e-03 6.06172346e-03
      -6.07062690e-03 2.76745185e-02 -2.95932796e-02 2.13856110e-03
      -1.30641954e-02 -1.66410021e-02 1.12375356e-02 6.06172346e-03
      9.76468064e-03 -6.75923750e-03 -4.44603106e-03 -5.87444985e-03
      6.06172346e-03 -1.46185635e-02 -4.30919812e-04 5.96508477e-03
      -1.74677446e-02 6.06172346e-03 -6.46031089e-03 -4.24242727e-02
      1.39461607e-02 1.57435071e-02 -1.32178273e-02 -1.32296430e-02
      -9.21666063e-03 -1.16104586e-03 -1.20785385e-02 -5.41059533e-03
      -1.18924165e-02 6.67278515e-03 -5.47308801e-03 -3.28681851e-03
      -2.09764554e-03 4.59187571e-03 -4.22178861e-03 1.32028805e-02
      1.22571969e-02 -2.70189829e-02 3.22607491e-04 1.12542603e-02
      -2.86860229e-03 -7.99126364e-03 -4.66295099e-03 -3.72523675e-03
      2.83721276e-03 3.92931923e-02 -3.98695320e-02 -2.01599859e-02
      8.96526966e-03 1.27318241e-02 -3.04333884e-02 1.37808011e-03
      3.14603699e-03 1.02928132e-02 5.30149322e-03 -1.04486267e-03
      1.82505918e-03 4.55522770e-03 1.75199821e-03 -2.72310781e-03
      -8.31179641e-05 -4.99893446e-03 3.14603699e-03 1.08493520e-02
      -3.34002241e-03 -1.91197963e-03 7.99672096e-04 7.81953242e-03
      -1.58761181e-02 -1.31720053e-02 3.14603699e-03 6.17309473e-03
      1.58399288e-02 -1.69593748e-02 -9.19956807e-03 9.48981324e-04
      1.36829549e-02 -1.22041414e-02 -1.62074640e-02 8.91773030e-03
      1.14767263e-02 3.83082335e-03 8.01365916e-03 6.93826936e-04
      1.13883941e-03 1.51107134e-02 6.31796289e-03 -1.20451313e-03
      -2.66198302e-03 1.13883941e-03 4.01593046e-03 -6.28348906e-04
      7.03185750e-03 -6.60532666e-03 6.98375795e-03 -6.61446527e-03
      -8.78117234e-03 1.13883941e-03 2.15961342e-03 1.18497303e-02
      -4.05634753e-03 1.38489297e-02 3.27870162e-04 2.98785046e-04
      4.29144828e-03 -9.03750025e-03 -2.52225213e-02 2.43307394e-03
      6.08627219e-03 1.04322024e-02 -5.47212269e-03 -2.87995976e-03
      1.43148738e-03 1.25113269e-02 -4.05104365e-03 -1.01628713e-03
      -5.27217519e-03 1.72573477e-02 1.15031069e-02 -1.44126453e-02
      -2.07274640e-03 -1.02860089e-02 1.16170533e-02 3.40265408e-03
      -1.75668504e-02 -7.72095332e-03 8.33414122e-03 4.35990980e-03
      2.13122461e-04 -1.15430460e-03 -8.54163081e-04 9.66416392e-03
      -6.32632803e-03 -4.05104365e-03 -4.05104365e-03 1.30306352e-02
      4.15771408e-03 -6.50574546e-03 -4.23452957e-03 -5.31758228e-03
      9.34763812e-03 -2.06554541e-03 -4.05104365e-03 -1.90662721e-03
      8.28462001e-03 2.97531788e-03 -1.32452911e-02 -1.23238671e-04
      -1.32964272e-02 5.45863528e-04 6.55046105e-03 -3.44176521e-03
      6.03697589e-03 -2.18886649e-03 -1.13911238e-02 -1.23238671e-04
      -1.23238671e-04 7.27512315e-03 -6.11799490e-03 8.23598914e-03
      1.64006948e-02 -8.33505485e-03 7.33525772e-03 -2.54561147e-03
      -9.26666893e-03 -1.23238671e-04 -9.70536936e-03 -1.59716676e-03
      4.92768735e-03 -6.81408634e-03 -2.04436318e-03 -4.70435852e-03
      -6.51156204e-03 1.94981301e-04 -1.23238671e-04 7.41946697e-03
      -8.48544668e-03 1.88441277e-02 -2.38707929e-04 7.63088698e-03
      -1.64920394e-03 2.59350426e-03 5.20564523e-03 6.47679146e-04
      -9.15846881e-03 -1.88641865e-02 1.17715774e-02 4.58716229e-03
      -5.33492677e-03 -7.90009275e-03 6.08029077e-03 -2.62678904e-03
      1.09335287e-02 -2.31102370e-02 -1.04290096e-03 -6.71691305e-05
      -6.71691305e-05 3.72670265e-03 -3.25632445e-03 -1.03373406e-03
      3.10835574e-04 7.72804907e-03 2.76486133e-03 -1.41219015e-03
      1.06178280e-02 -6.71691305e-05 6.07478083e-04 -6.33714814e-03
      8.99092352e-04 -6.00843865e-04 9.22992174e-03 -8.37278180e-03
      -3.71216750e-03 -1.68483499e-02 -6.71691305e-05</_></support_vectors>
  <uncompressed_sv_total>13</uncompressed_sv_total>
  <uncompressed_support_vectors>
    <_>
      8.62933472e-02 6.38834387e-02 9.17017311e-02 7.09463879e-02
      2.52573013e-01 2.52573013e-01 2.30425805e-01 1.84440047e-01
      1.13008417e-01 1.46659479e-01 6.69797137e-02 5.43516092e-02
      5.96382879e-02 2.52573013e-01 2.52573013e-01 1.75399736e-01
      1.80419132e-01 1.37949005e-01 9.77016389e-02 1.05758250e-01
      8.97597820e-02 1.29287183e-01 2.52573013e-01 2.51344472e-01
      2.42154777e-01 1.42748654e-01 8.75710770e-02 1.22064799e-01
      1.11810207e-01 1.58867657e-01 1.60015747e-01 2.52573013e-01
      1.83932513e-01 1.99147895e-01 1.30918890e-01 1.03788838e-01
      1.23938933e-01 4.99207564e-02 5.72321936e-02 4.78568524e-02
      2.04980284e-01 1.81510761e-01 2.28907898e-01 1.96903884e-01
      1.50009841e-01 1.81706652e-01 5.09503707e-02 8.08444321e-02
      1.55420706e-01 1.63902551e-01 1.56367451e-01 2.28907898e-01
      2.28907898e-01 2.28907898e-01 1.42342791e-01 1.16444528e-01
      1.82179347e-01 8.93744826e-02 2.28907898e-01 8.25495943e-02
      2.17286065e-01 1.41972378e-01 1.35072932e-01 2.15128869e-01
      1.61534443e-01 1.87927529e-01 1.60257429e-01 2.08343104e-01
      7.89594054e-02 1.86588958e-01 1.76185787e-01 2.05292448e-01
      1.29514933e-01 7.07360208e-02 7.86516815e-02 8.72858316e-02
      1.32276595e-01 7.29500502e-02 1.07817091e-01 1.93985865e-01
      2.64983147e-01 2.64983147e-01 1.77962407e-01 1.16379336e-01
      8.85719061e-02 2.30801404e-01 5.33309244e-02 2.64983147e-01
      2.64983147e-01 2.64983147e-01 1.50866762e-01 1.55608147e-01
      1.39065281e-01 8.32659677e-02 1.52140096e-01 3.79060879e-02
      6.58278763e-02 9.86814722e-02 1.70547947e-01 2.64983147e-01
      2.64983147e-01 1.89122111e-01 9.76221785e-02 1.26887769e-01
      2.34303828e-02 5.12971021e-02 1.15009740e-01 2.64983147e-01
      1.67651013e-01 8.67875516e-02 8.32322612e-02 1.28603220e-01
      1.31191358e-01 3.83836925e-02 2.89137185e-01 2.89137185e-01
      1.36415899e-01 2.80304462e-01 1.15474619e-01 1.07816167e-01
      1.57944039e-01 7.48641938e-02 3.98516282e-02 2.89137185e-01
      2.89137185e-01 2.51940340e-01 2.89137185e-01 9.58851352e-02
      4.91673201e-02 3.95044349e-02 6.93673044e-02 2.73152925e-02
      7.06922486e-02 8.50887522e-02 1.71725363e-01 2.89137185e-01
      1.28602833e-01 1.83699131e-02 1.73346568e-02 4.60566767e-02
      4.20022272e-02 1.32240757e-01 1.31758869e-01 2.89137185e-01
      2.92000830e-01 1.76694095e-01 4.89416495e-02 2.95891929e-02
      1.15666278e-02 2.04855576e-02 9.48791578e-02 1.24335490e-01
      2.59386331e-01 2.30544865e-01 2.10089356e-01 6.16041049e-02
      2.02640537e-02 9.22119152e-03 1.69191379e-02 4.23680544e-02
      9.89399031e-02 2.60820895e-01 3.57170492e-01 1.47527710e-01
      1.13708461e-02 1.99098908e-03 4.00811853e-03 1.95502266e-02
      9.07702371e-02 1.22806735e-01 3.57170492e-01 3.57170492e-01
      1.81776583e-01 3.01809814e-02 1.24327047e-02 4.62902302e-04
      9.36976075e-03 4.26022187e-02 1.04839437e-01 3.57170492e-01
      1.70171931e-01 9.15062949e-02 3.89042310e-02 2.09800731e-02
      1.25121605e-02 3.14396992e-03 2.37882845e-02 6.31347001e-02
      2.39915699e-01 2.36296624e-01 1.11550011e-01 3.77614088e-02
      1.38757378e-02 2.09144317e-02 5.78442868e-03 3.75298075e-02
      5.54847717e-02 2.44745940e-01 4.02974695e-01 2.49492899e-01
      2.73010675e-02 1.57109015e-02 6.84769871e-03 1.83417893e-03
      1.67570952e-02 5.68152629e-02 4.02974695e-01 4.02974695e-01
      1.97771028e-01 1.72944479e-02 1.44748017e-02 1.45540461e-02
      5.38692996e-03 3.54137458e-02 4.67438363e-02 4.02974695e-01
      2.12967709e-01 1.01227641e-01 3.93472500e-02 2.40618316e-03
      1.69213526e-02 7.02851964e-03 3.10877953e-02 4.66428213e-02
      1.31789520e-01 2.72054046e-01 8.18850473e-02 4.89459522e-02
      1.20727243e-02 2.33694352e-02 2.15988979e-02 4.75775190e-02
      7.54825994e-02 1.86777785e-01 4.01881218e-01 2.03534633e-01
      2.27232985e-02 2.25933897e-03 9.72062070e-03 3.64974048e-03
      1.98946167e-02 3.40433680e-02 4.01881218e-01 4.01881218e-01
      3.11071128e-01 3.02673616e-02 4.67395550e-03 1.19681954e-02
      1.04596419e-02 3.07198390e-02 4.81563583e-02 4.01881218e-01
      2.21388325e-01 5.10102957e-02 2.48787254e-02 9.73600522e-03
      1.92657486e-02 1.34988381e-02 2.78532300e-02 4.32460122e-02
      1.51048139e-01 2.55989045e-01 9.43175107e-02 6.82202056e-02
      2.64371727e-02 7.01141581e-02 1.81902517e-02 7.32844770e-02
      5.63816391e-02 1.90403998e-01 3.38532448e-01 1.37648433e-01
      1.62231904e-02 5.34403324e-03 9.34950076e-03 5.43415500e-03
      2.02343743e-02 2.05011871e-02 3.38532448e-01 3.38532448e-01
      2.88484842e-01 1.07513994e-01 6.97478279e-02 2.34932601e-01
      1.40884727e-01 3.38532448e-01 1.43348381e-01 3.38532448e-01
      1.56973913e-01 5.99839501e-02 1.26881748e-01 6.93722665e-02
      7.56049082e-02 2.89071724e-02 5.21206632e-02 5.61161824e-02
      9.29346234e-02 1.33067101e-01 5.42008802e-02 1.75832361e-01
      2.41072521e-01 2.41072521e-01 7.83080235e-02 9.55440924e-02
      9.86407548e-02 5.98804653e-02 2.41072521e-01 1.21583983e-01
      2.16181666e-01 1.64896473e-01 2.09687188e-01 1.32095128e-01
      2.41072521e-01 2.41072521e-01 1.97167620e-01 1.64587438e-01
      6.39124289e-02 2.25654691e-01 2.41072521e-01 2.41072521e-01
      1.87806353e-01 2.41072521e-01 2.41072521e-01 1.33560568e-01
      2.05499269e-02 2.94108931e-02 1.23767130e-01 2.66247034e-01
      2.01261356e-01 6.10905588e-02 6.97483495e-02 3.72294486e-02
      1.54066989e-02 2.24479754e-02 1.58801973e-01 2.88052291e-01
      2.88052291e-01 2.53415555e-01 8.52247924e-02 3.38941850e-02
      3.52252019e-03 6.19074702e-03 2.82392390e-02 1.94244292e-02
      8.64840597e-02 2.50275224e-01 2.88052291e-01 2.33278841e-01
      1.84604943e-01 7.74566531e-02 3.00105754e-02 1.29378019e-02
      9.50521827e-02 2.88052291e-01 2.88052291e-01 2.88052291e-01
      2.88052291e-01 5.71328029e-02 1.53515562e-02 1.69322100e-02
      7.52566531e-02 2.61979073e-01 2.91578472e-01 2.91578472e-01
      2.56774068e-01 4.98088077e-02 4.08110023e-02 9.57440492e-03
      8.32375232e-03 1.44243613e-01 2.54870057e-01 2.26336688e-01
      2.22258002e-01 1.52564183e-01 5.40437512e-02 4.45623621e-02
      4.68892045e-02 4.29720394e-02 1.62057113e-02 9.45757776e-02
      2.16175720e-01 2.91578472e-01 2.91578472e-01 2.36349270e-01
      5.21222688e-02 1.53152319e-02 5.87900262e-03 2.93067861e-02
      5.05380593e-02 4.63138148e-02 2.04800010e-01 2.91578472e-01
      1.65301383e-01 1.22492202e-01 6.12234212e-02 2.18157656e-02
      9.00136158e-02 1.02109239e-01 1.67483330e-01 1.45209774e-01
      2.43814424e-01 1.72064126e-01 1.75819978e-01 1.39845163e-01
      9.78886038e-02 8.00402537e-02 1.29075304e-01 2.02234656e-01
      1.91900179e-01 2.43814424e-01 1.37239009e-01 1.82314232e-01
      1.58032387e-01 1.37185395e-01 9.52503383e-02 1.05465703e-01
      1.94711298e-01 8.97782966e-02 2.43814424e-01 1.02803707e-01
      1.87083721e-01 1.74241826e-01 1.52372807e-01 9.33155939e-02
      1.34121388e-01 1.86063722e-01 1.88177273e-01 2.43814424e-01
      1.44212052e-01 1.92301437e-01 1.62898615e-01 2.43814424e-01
      9.04602483e-02 1.13164365e-01 1.31596431e-01 8.90456960e-02
      2.36418009e-01 9.15390700e-02 1.82981536e-01 1.78494886e-01
      1.02665767e-01 1.95668086e-01 1.88501462e-01 1.31398559e-01
      9.73867178e-02 1.84932053e-01 1.26200661e-01 2.13097587e-01
      1.93542570e-01 1.42947838e-01 5.76357394e-02 8.19823816e-02
      1.15198024e-01 1.56891212e-01 2.36418009e-01 1.66462675e-01
      2.25786775e-01 1.85355037e-01 1.75736368e-01 8.98579508e-02
      1.05978571e-01 1.38801008e-01 1.70087159e-01 2.36418009e-01
      2.36418009e-01 2.36418009e-01 2.26966694e-01 1.50997624e-01
      1.95841312e-01 2.50892371e-01 1.29821643e-01 6.85630366e-02
      1.04938239e-01 9.42703858e-02 9.13374722e-02 8.32993612e-02
      1.26281381e-01 2.51617104e-01 2.51617104e-01 1.68638289e-01
      5.04156351e-02 7.77920261e-02 7.38166720e-02 1.04467653e-01
      1.75861716e-01 2.51617104e-01 9.95657891e-02 1.36532769e-01
      1.39444262e-01 1.25280723e-01 1.89987659e-01 2.00748160e-01
      2.23134384e-01 1.03002720e-01 9.32504237e-02 2.20984623e-01
      2.12165117e-01 1.36981502e-01 7.30580240e-02 2.30476350e-01
      2.42408603e-01 2.51617104e-01 1.57481655e-01 1.48731917e-01
      3.40794683e-01 1.70656413e-01 4.19354253e-02 1.41270990e-02
      4.98879030e-02 5.32927960e-02 7.70717189e-02 1.19303264e-01
      3.25075716e-01 3.40794683e-01 2.46883020e-01 7.36303208e-03
      4.61449800e-03 2.74208132e-02 4.51497957e-02 8.89914185e-02
      1.51228353e-01 3.40794683e-01 2.20726460e-01 7.97442570e-02
      4.91888300e-02 2.86289323e-02 1.31581485e-01 1.93999782e-01
      1.59693658e-01 1.13848537e-01 1.33544013e-01 3.40794683e-01
      6.92272186e-02 3.12740244e-02 2.63405517e-02 6.03967160e-02
      1.08996958e-01 1.50212988e-01 1.90356418e-01 1.57507494e-01
      3.88530254e-01 1.76096037e-01 4.37994953e-03 1.97965826e-04
      1.52345782e-03 1.32296812e-02 6.54885843e-02 1.13329232e-01
      3.88530254e-01 3.88530254e-01 1.46684110e-01 5.72415581e-03
      1.27945177e-03 0. 5.44424308e-03 4.31535691e-02 1.42098084e-01
      3.88530254e-01 2.68448859e-01 5.36066666e-02 1.41453259e-02
      1.67338327e-02 1.21509423e-02 3.01862359e-02 1.01810753e-01
      1.13619827e-01 1.22673742e-01 3.31628114e-01 4.97905053e-02
      2.20533665e-02 1.68540590e-02 1.00072939e-02 2.31104940e-02
      9.34688821e-02 1.50660217e-01 2.00562745e-01 3.98157209e-01
      2.57060260e-01 7.60299247e-03 1.34597416e-03 2.78086256e-04
      9.21441242e-04 1.57957952e-02 8.68440270e-02 3.98157209e-01
      3.98157209e-01 2.03361124e-01 5.82314981e-03 1.46678486e-03
      6.11789816e-04 1.05248450e-03 1.07437074e-02 5.21359853e-02
      3.98157209e-01 2.38620058e-01 6.00102842e-02 2.35256031e-02
      1.98137164e-02 9.20982566e-03 1.01039726e-02 5.19617386e-02
      1.04417183e-01 2.07908556e-01 2.49568164e-01 9.23102871e-02
      2.56756321e-02 1.48699647e-02 9.45681799e-03 1.29199168e-02
      2.82829851e-02 6.55690730e-02 2.19551802e-01 3.77453059e-01
      1.61357731e-01 5.17360866e-03 7.09303131e-04 2.15247762e-03
      9.40168451e-04 3.03437398e-03 2.97305584e-02 3.77453059e-01
      3.77453059e-01 2.67077625e-01 1.50350137e-02 4.02355893e-03
      1.17986016e-02 1.36433379e-03 7.23002106e-03 4.08614799e-02
      3.77453059e-01 2.22444773e-01 7.77604878e-02 4.03283648e-02
      5.95845608e-03 1.72316581e-02 2.54994817e-02 1.12098698e-02
      3.89440842e-02 1.75361723e-01 3.77453059e-01 1.59360528e-01
      1.28455371e-01 1.47354510e-02 5.23990542e-02 2.24851724e-02
      6.93430379e-03 5.26602119e-02 2.11564377e-01 3.20599854e-01
      1.29376337e-01 1.65253263e-02 3.62079823e-03 5.70381386e-03
      9.97861382e-04 5.06107975e-03 2.75069140e-02 3.20599854e-01
      3.20599854e-01 2.13658854e-01 4.62650619e-02 5.28731830e-02
      1.16925962e-01 9.92305130e-02 2.84243971e-01 1.77948430e-01
      3.20599854e-01 3.20599854e-01 1.33735731e-01 5.42203374e-02
      1.53339719e-02 3.30004133e-02 1.04659572e-02 7.16599682e-03
      4.11017649e-02 1.82040423e-01 3.20599854e-01 1.33910999e-01
      2.91424561e-02 2.35535689e-02 2.93502361e-02 6.54753298e-03
      3.01396716e-02 5.48647121e-02 3.07227433e-01 1.42772824e-01
      7.35523403e-02 7.33250454e-02 8.89408812e-02 9.77004170e-02
      9.66533273e-02 2.68663555e-01 2.68663555e-01 1.42266482e-01
      1.37925595e-01 3.16607207e-02 1.16046630e-01 2.68663555e-01
      1.31144702e-01 2.17807502e-01 2.68663555e-01 2.68663555e-01
      1.79032743e-01 2.68663555e-01 5.06576374e-02 1.47903953e-02
      1.11713456e-02 2.12527439e-02 1.39015112e-02 5.12520410e-02
      8.88091400e-02 1.92531005e-01 2.68663555e-01 5.67286909e-02
      3.51299867e-02 1.39167026e-01 7.00506195e-02 1.23925351e-01
      2.62093931e-01 2.18100160e-01 2.68663555e-01 9.81398895e-02
      1.51725858e-02 3.51294354e-02 1.98197410e-01 2.35762864e-01
      2.09022030e-01 1.66532710e-01 8.10457245e-02 7.45064169e-02
      6.20765239e-02 3.32644917e-02 3.93968783e-02 2.68383920e-01
      2.68383920e-01 2.68383920e-01 7.21055269e-02 2.47665104e-02
      5.57339154e-02 2.68383920e-01 3.60015035e-02 3.53117436e-02
      2.68383920e-01 2.68383920e-01 1.92245632e-01 1.39170423e-01
      1.00599967e-01 1.99520543e-01 1.09493777e-01 4.64054905e-02
      2.90575046e-02 2.68383920e-01 2.68383920e-01 2.68383920e-01
      1.12363331e-01 3.33116837e-02 8.11918378e-02 1.82035062e-02
      3.35970335e-02 3.50607559e-02 2.36998573e-01 2.84674823e-01
      2.84674823e-01 1.82406485e-01 2.10335460e-02 3.21296193e-02
      2.76052281e-02 4.53174151e-02 2.77441908e-02 8.70751590e-02
      2.84674823e-01 2.84674823e-01 2.17312276e-01 5.75732775e-02
      3.73064242e-02 2.77985856e-02 4.15691547e-02 1.35474224e-02
      1.66418985e-01 2.84674823e-01 2.84674823e-01 2.84674823e-01
      5.57408258e-02 5.85999228e-02 5.53495362e-02 8.64999667e-02
      4.51083854e-02 5.42205796e-02 1.70284152e-01 2.84674823e-01
      2.84674823e-01 1.25973850e-01 1.17418833e-01 1.04754902e-01
      9.99743491e-02 1.11186348e-01 2.58891415e-02 1.68046534e-01
      5.40812761e-02 2.17660964e-01 1.58338398e-01 1.45257682e-01
      9.08497944e-02 1.14281967e-01 2.34032646e-01 2.46024355e-01
      2.46024355e-01 1.43233463e-01 2.04756886e-01 1.19468562e-01
      1.50874242e-01 1.21567778e-01 1.22233562e-01 1.22636572e-01
      2.96853893e-02 1.80207953e-01 1.08787842e-01 2.06525505e-01
      1.49894565e-01 1.96914002e-01 1.37037456e-01 9.23174843e-02
      2.30990648e-01 2.46024355e-01 2.46024355e-01 1.65569067e-01
      2.46024355e-01 1.41072720e-01 1.96993843e-01 5.23112863e-02
      9.62595269e-02 1.82260633e-01 2.59146035e-01 2.59583563e-01
      9.77354571e-02 1.26358047e-01 5.09903505e-02 8.40368047e-02
      4.48787883e-02 1.01881817e-01 2.06030890e-01 2.59583563e-01
      2.59583563e-01 1.26827314e-01 1.39189392e-01 4.87643294e-02
      6.39408752e-02 1.09968640e-01 1.13071918e-01 1.90004364e-01
      2.59583563e-01 2.59583563e-01 1.04546502e-01 1.40052333e-01
      4.84114587e-02 1.10067464e-01 1.14466548e-01 2.59583563e-01
      2.59583563e-01 2.59583563e-01 2.59583563e-01 1.14298433e-01
      7.14138299e-02 2.41195578e-02 9.37807262e-02 6.64295582e-03
      1.67090259e-02 3.92358676e-02 5.32243289e-02 5.51433265e-02
      2.73045152e-02 2.54432280e-02 6.79330900e-03 7.73754762e-03
      3.01172026e-02 6.94735907e-03 3.69338617e-02 4.86085415e-02
      8.03195611e-02 5.02471887e-02 3.47789563e-02 1.04353772e-02
      2.70915739e-02 1.84256390e-01 3.70214999e-01 3.95138592e-01
      6.97543621e-02 4.63583991e-02 2.11051907e-02 4.36200993e-03
      3.80080688e-04 3.55784595e-02 3.95138592e-01 3.95138592e-01
      3.95138592e-01 7.47842565e-02 5.93261458e-02 3.75525691e-02
      1.22864731e-02 2.40703160e-03 3.95138592e-01 3.18155475e-02
      3.47597594e-03 1.73191521e-02 2.11759303e-02 4.75400425e-02
      3.82356234e-02 2.06388347e-02 9.03986488e-03 3.55664417e-02
      3.43046114e-02 7.74982711e-03 1.57216676e-02 1.61185116e-02
      2.72751506e-02 1.85721852e-02 1.62122250e-02 1.46049112e-02
      4.90199700e-02 4.56894457e-01 2.97249496e-01 4.08433452e-02
      2.92902626e-02 3.74016874e-02 2.26689447e-02 8.46328493e-03
      3.61131616e-02 4.56894457e-01 4.56894457e-01 4.67257835e-02
      2.19358746e-02 1.69251505e-02 2.43405811e-02 6.93265349e-03
      2.91583431e-03 2.22879291e-01 4.56894457e-01 2.51356270e-02
      1.11091863e-02 1.63519550e-02 1.56100411e-02 1.22886980e-02
      7.35141104e-03 1.31801460e-02 1.15490891e-02 3.20956297e-02
      2.55563799e-02 1.19100697e-02 1.77204385e-02 1.09917140e-02
      1.21001787e-02 6.07709819e-03 1.78893842e-02 2.13456415e-02
      2.55284738e-02 4.19244677e-01 6.79440722e-02 2.21690182e-02
      1.37780048e-02 1.45750837e-02 6.38531195e-03 3.64883384e-03
      3.45166504e-01 4.19244677e-01 4.19244677e-01 2.54827559e-01
      1.87266562e-02 8.00840463e-03 1.51092689e-02 1.46659566e-02
      1.22788129e-02 3.10561121e-01 4.19244677e-01 2.67542396e-02
      1.79567318e-02 2.17464026e-02 2.13628300e-02 1.67428851e-02
      7.59897428e-03 2.40912475e-02 3.14490236e-02 2.95669269e-02
      3.49535570e-02 3.67404893e-02 2.21118126e-02 2.27537621e-02
      1.38220564e-02 1.13038551e-02 2.24283412e-02 2.72573773e-02
      3.10513042e-02 4.46469605e-01 2.82364458e-01 3.73786949e-02
      1.86098199e-02 4.30913083e-02 6.28828779e-02 2.40954682e-02
      1.48615018e-01 4.46469605e-01 4.46469605e-01 5.59518933e-02
      3.16022374e-02 2.49726567e-02 7.11029246e-02 1.55214235e-01
      1.65981591e-01 1.26262575e-01 4.46469605e-01 4.70213667e-02
      4.30371761e-02 5.21413833e-02 1.10359071e-02 7.80661032e-02
      5.11832796e-02 1.48234740e-02 2.03364175e-02 3.14286463e-02
      2.79115409e-01 1.24826655e-01 2.18196839e-01 3.55802476e-02
      2.13198334e-01 1.14742190e-01 1.70872398e-02 1.62399467e-02
      1.03426926e-01 2.79115409e-01 7.91365579e-02 4.88661714e-02
      2.79453956e-02 2.20831022e-01 1.71409667e-01 2.62173235e-01
      1.76958263e-01 2.79115409e-01 2.79115409e-01 1.40576228e-01
      2.04999059e-01 7.39334971e-02 2.79115409e-01 2.79115409e-01
      1.64900929e-01 1.35024190e-01 2.79115409e-01 3.16770315e-01
      1.08807839e-01 9.95072275e-02 5.93257323e-02 9.75204110e-02
      6.40664324e-02 2.99249049e-02 2.51193922e-02 1.65902495e-01
      3.16770315e-01 7.04409853e-02 2.05131974e-02 5.35299815e-02
      6.81645051e-02 3.06690279e-02 2.37858724e-02 5.30680902e-02
      3.16770315e-01 3.16770315e-01 8.97678137e-02 1.05041713e-01
      6.89097345e-02 2.09442794e-01 2.45847076e-01 1.55822709e-01
      8.67054462e-02 2.40088090e-01 3.16770315e-01 8.81727263e-02
      4.30225469e-02 5.34253307e-02 1.34496167e-01 1.87194869e-01
      1.18037142e-01 1.38491929e-01 3.06044459e-01 2.67140329e-01
      3.80956121e-02 1.75028276e-02 8.10515322e-03 7.90335163e-02
      2.71982718e-02 8.61950591e-03 3.27450223e-02 2.22953960e-01
      2.67140329e-01 8.69075283e-02 4.72810008e-02 5.04233427e-02
      1.85982928e-01 8.87184367e-02 3.32104787e-02 1.04159385e-01
      2.67140329e-01 2.67140329e-01 5.52996472e-02 2.45700981e-02
      3.05010304e-02 2.59814888e-01 1.69123992e-01 4.28986438e-02
      4.94424589e-02 2.56341666e-01 2.67140329e-01 2.11751297e-01
      2.13994443e-01 1.06508687e-01 2.67140329e-01 2.67140329e-01
      1.49612054e-01 7.03985989e-02 2.67140329e-01 2.42237628e-01
      7.89839029e-02 6.56153038e-02 2.31636107e-01 2.64237463e-01
      1.24163181e-01 2.89090667e-02 8.40546861e-02 2.20549017e-01
      5.59104681e-02 4.53935154e-02 5.35662025e-02 2.64237463e-01
      2.64237463e-01 1.80728167e-01 7.25303292e-02 2.61702426e-02
      4.29481231e-02 1.47738680e-01 2.64237463e-01 2.64237463e-01
      1.73582256e-01 2.64237463e-01 2.47709021e-01 7.42204338e-02
      5.34997135e-02 9.46984515e-02 3.64139788e-02 1.78851202e-01
      1.55275241e-01 2.18420386e-01 2.64237463e-01 1.68662205e-01
      1.80223342e-02 1.53030269e-02 2.16741227e-02 1.79112945e-02
      3.46260630e-02 2.23928262e-02 1.72980368e-01 2.97869086e-01
      2.97869086e-01 2.97869086e-01 1.40577450e-01 4.65403758e-02
      5.21980040e-02 6.30841330e-02 3.67422774e-02 2.92385854e-02
      9.36672091e-02 2.63393998e-01 2.97869086e-01 2.97869086e-01
      1.47509232e-01 2.19453517e-02 2.43336670e-02 3.13417688e-02
      1.37615651e-01 2.97869086e-01 1.35622948e-01 1.86488554e-01
      8.52196813e-02 3.95829976e-02 3.35586779e-02 1.38034672e-02
      1.07641760e-02 4.58772667e-02 1.10007547e-01 1.47862017e-01
      2.97869086e-01 2.97869086e-01 6.34742081e-02 1.08686849e-01
      9.25167948e-02 9.06626284e-02 7.94087052e-02 1.79805413e-01
      1.04534246e-01 1.73813641e-01 1.26441464e-01 1.85345232e-01
      1.01030730e-01 5.92364110e-02 2.18907386e-01 2.40475342e-01
      2.40475342e-01 1.40482247e-01 2.40475342e-01 1.02000795e-01
      1.66570768e-01 1.82247058e-01 1.11275680e-01 1.17745742e-01
      1.08689800e-01 2.40475342e-01 8.20548087e-02 1.58585206e-01
      1.63774639e-01 2.21604601e-01 9.15577263e-02 1.00144736e-01
      2.40475342e-01 2.40475342e-01 2.40475342e-01 2.20496982e-01
      2.01843351e-01 1.04221575e-01 1.29804447e-01 1.53267998e-02
      2.07495596e-02 4.14695516e-02 5.96390031e-02 4.55413386e-02
      1.32480562e-02 1.46079324e-02 5.33271953e-03 1.58454869e-02
      2.61913575e-02 2.61466235e-01 4.14859682e-01 1.37914449e-01
      4.43725400e-02 1.49305779e-02 6.45868480e-03 2.23206426e-03
      1.30744083e-02 1.14716543e-02 7.03797564e-02 2.66207188e-01
      2.36368001e-01 5.20184189e-02 1.79311596e-02 1.06258588e-02
      3.79308197e-03 1.15239387e-02 9.00657326e-02 4.14859682e-01
      4.14859682e-01 4.14859682e-01 2.51406968e-01 4.11014147e-02
      7.44983694e-03 2.72195740e-03 8.87070317e-03 9.91428569e-02
      3.24824929e-01 3.24824929e-01 7.13590160e-02 1.50403557e-02
      4.11883509e-03 8.65049777e-04 2.38571811e-04 1.28806839e-02
      3.24824929e-01 3.24824929e-01 3.24824929e-01 4.12018113e-02
      1.83796678e-02 5.25793899e-03 2.37069768e-03 1.03995716e-03
      1.47912502e-01 6.44732267e-02 3.24824929e-01 3.24824929e-01
      2.53753871e-01 1.07249416e-01 1.27822105e-02 3.87772778e-03
      3.62302922e-03 5.64537337e-03 9.99035165e-02 1.89886957e-01
      2.96810925e-01 4.95988056e-02 3.56060676e-02 4.96779010e-03
      4.53851791e-03 9.75630060e-03 2.48998944e-02 4.12737578e-01
      3.28881919e-01 6.36496916e-02 2.28842869e-02 2.12549455e-02
      1.20778373e-02 6.91136438e-03 3.31308804e-02 4.12737578e-01
      4.12737578e-01 1.19406268e-01 5.89205325e-02 1.42650502e-02
      2.37686709e-02 3.89544554e-02 3.90957966e-02 2.36074224e-01
      4.12737578e-01 1.18909210e-01 6.69631287e-02 4.16729189e-02
      1.90038085e-02 2.93712709e-02 1.50228832e-02 9.80529655e-03
      1.86073519e-02 7.67882988e-02 9.55397487e-02 1.05725177e-01
      1.25748932e-01 7.38574713e-02 4.93020006e-02 8.22642520e-02
      9.50583443e-02 9.11841765e-02 1.62606791e-01 3.23374003e-01
      1.31414101e-01 4.20039855e-02 6.03600172e-03 9.15046036e-03
      2.74071284e-02 3.65308076e-02 2.79403746e-01 3.23374003e-01
      3.23374003e-01 2.75808454e-01 2.61860061e-02 6.68292772e-03
      1.86131336e-02 3.34902555e-02 2.29932237e-02 2.93065339e-01
      3.23374003e-01 8.87731463e-02 1.16450213e-01 1.49957001e-01
      1.10588521e-01 5.55284582e-02 9.03651416e-02 1.02065116e-01
      1.18076041e-01 1.59267038e-01 1.95100620e-01 1.38400167e-01
      1.46540731e-01 1.23098731e-01 1.01341538e-01 1.63222402e-01
      1.20032661e-01 1.07984334e-01 2.01334834e-01 2.94543594e-01
      2.03372195e-01 7.84588456e-02 2.15061177e-02 9.14821103e-02
      1.07775062e-01 1.48391919e-02 9.53376368e-02 2.94543594e-01
      2.94543594e-01 4.71637659e-02 8.43182430e-02 3.45588550e-02
      1.16572782e-01 1.90640271e-01 1.15961730e-01 9.31105688e-02
      2.94543594e-01 1.94481105e-01 1.15977928e-01 1.58805549e-01
      8.54635462e-02 1.95583850e-01 2.15426832e-01 1.14861675e-01
      4.66748588e-02 1.77024186e-01 2.03091502e-01 7.14465901e-02
      1.62625208e-01 7.23901615e-02 2.20273405e-01 2.28884071e-01
      1.37673616e-01 1.16573542e-01 2.52041340e-01 2.36536294e-01
      6.75434694e-02 3.21998820e-02 3.79271954e-02 6.86311051e-02
      1.06149182e-01 2.36536294e-01 1.93110734e-01 2.36536294e-01
      2.36536294e-01 1.19784094e-01 7.19152242e-02 6.49974868e-02
      1.33951873e-01 8.65205750e-02 2.32633024e-01 2.22220659e-01
      2.36536294e-01 2.21134439e-01 6.35498911e-02 5.72209023e-02
      6.83073625e-02 1.16910294e-01 1.55416876e-01 2.05396548e-01
      2.10763007e-01 1.95881024e-01 2.24156588e-01 1.32528514e-01
      7.95817301e-02 1.22074403e-01 1.43448904e-01 1.13886826e-01
      2.36536294e-01 2.36536294e-01 2.16185987e-01 2.57373452e-01
      7.90425539e-02 6.48672879e-02 4.87870201e-02 8.46405998e-02
      1.29341215e-01 2.22760871e-01 1.39046997e-01 2.57373452e-01
      2.57373452e-01 7.47970045e-02 4.43387814e-02 2.30448302e-02
      6.13947995e-02 9.98627841e-02 1.11601278e-01 1.36064768e-01
      2.57373452e-01 2.57373452e-01 1.15582541e-01 8.29593390e-02
      1.00480184e-01 1.07961364e-01 9.44902450e-02 2.36518502e-01
      2.38529325e-01 2.57373452e-01 2.57373452e-01 9.19643193e-02
      7.23107979e-02 6.73821867e-02 7.40094557e-02 8.14109445e-02
      2.20634907e-01 2.57373452e-01 2.57373452e-01 1.66749030e-01
      7.15719908e-02 5.00656664e-02 4.46071625e-02 1.07994206e-01
      1.00306995e-01 7.28734434e-02 8.94696116e-02 1.99554339e-01
      2.28248626e-01 1.95249528e-01 2.28248626e-01 1.96647614e-01
      2.28248626e-01 2.16904238e-01 1.47160426e-01 5.21628708e-02
      1.29711375e-01 1.55592784e-01 9.67067331e-02 8.59775692e-02
      7.38727301e-02 5.48206270e-02 7.25181103e-02 2.05352753e-01
      2.13843316e-01 2.21689835e-01 2.28248626e-01 1.78722143e-01
      2.28248626e-01 2.28238240e-01 1.15736395e-01 1.21347867e-01
      2.28248626e-01 2.28248626e-01 2.27671564e-01 1.93988830e-01
      2.45265976e-01 2.71911502e-01 1.51211321e-01 2.71911502e-01
      2.40881249e-01 7.17882067e-02 1.27013465e-02 4.83134761e-02
      3.36333886e-02 9.95197073e-02 1.34012163e-01 1.16789900e-01
      2.71911502e-01 1.55884206e-01 6.94041373e-03 1.09792943e-03
      2.38407683e-02 1.97199896e-01 1.03324674e-01 2.41230205e-01
